#ifndef MODEL_PARAMS_H
#define MODEL_PARAMS_H

#define Layer0_weight_arr {0.10163403, -0.032200444, 0.2393361, 0.025277158, 0.10668681, 0.03245971, 0.094744235, 0.34781703, 0.1031561, 0.18171152, -0.17199448, -0.170294, -0.029949125, 0.067400284, 0.22680408, -0.38382456, -0.12948465, 0.0917516, 0.2547781, 0.043836493, -0.26822072, -0.29608932, -0.096680515, 0.2116936, 0.12285632, 0.12502626, 0.06707697, 0.07101874, -0.074995376, -0.24981341, -0.13659663, -0.33424842, -0.027340263, -0.17168497, 0.32157478, -0.39609966, -0.13924342, 0.095118634, 0.33278486, 0.54771703, 0.1108703, -0.0049874014, 0.3273673, 0.28458163, 0.08313162, 0.01715108, 0.07941242, -0.104251474, 0.09130459, -0.14348073, 0.20528212, -0.05068969, 0.008032948, -0.19284776, -0.35259524, -0.03430608, 0.056162655, -0.30557424, -0.2716208, -0.068857335, 0.17720482, -0.31204262, -0.30335155, -0.26351035, 0.077881716, 0.0026002135, -0.42207748, -0.2851695, -0.032469403, 0.17686248, -0.032291796, -0.24895312, -0.038570903, 0.055718947, 0.32420158, 0.36141995, 0.31896478, 0.3771891, 0.15687618, 0.28252214, -0.015859114, -0.08740624, 0.13556519, 0.2226005, 0.025288008, -0.3356132, -0.17998344, -0.1786392, -0.24037676, -0.07835926, -0.16957708, -0.4603498, -0.3736293, -0.35413894, -0.15880233, -0.0021749428, 0.05216903, -0.014004064, 0.12504551, 0.048622582, -0.42922685, -0.49097517, -0.075997554, 0.1256526, -0.010690501, -0.07143197, -0.33330232, -0.06467874, 0.016211616, -0.13218273, 0.18330106, 0.33433592, 0.08423974, -0.22863764, -0.24972087, 0.34851655, 0.28420237, -0.038158737, -0.07522792, 0.17901625, 0.08499829, -0.017618112, 0.02820183, 0.17341141, 0.07488693, 0.12248651, 0.22503372, -0.4314516, -0.4196326, 0.05906094, -0.009945701, 0.344713, -0.13562195, -0.23551024, 0.04246115, 0.040330507, 0.36385664, -0.03200072, 0.26414165, 0.017159378, -0.13560951, 0.002481849, 0.2547718, 0.08194771, -0.065307006, -0.011449644, 0.17402786, -0.002529623, 0.011105951, -0.07260142}
#define Layer0_weight_SHAPE { 6, 1, 5, 5 }

#define Layer0_bias_arr {-0.09938454, 0.03468323, -0.05505856, 0.12911768, 0.09277623, 0.004174806}
#define Layer0_bias_SHAPE { 6 }

#define Layer3_weight_arr {0.062280476, 0.12532552, 0.16725874, -0.02391578, 0.019657873, 0.25565183, -0.14139077, -0.24865966, 0.062961675, -0.0678705, -0.084669515, -0.15860514, -0.079487935, -0.1387151, 0.1439877, 0.0085109, 0.029695215, 0.14918569, -0.1489353, -0.38497558, -0.48163638, 0.038818464, -0.20571758, -0.3691603, 0.24130845, 0.1024256, -0.14804286, 0.2155205, -0.12627488, -0.28256938, 0.06918025, 0.29111245, 0.0002178478, 0.066994585, 0.013559425, -0.08143265, 0.0096555445, -0.18267661, 0.06377138, 0.14495814, -0.052841388, 0.1206849, -0.082010716, -0.12551138, -0.07916148, -0.14012158, 0.1631298, 0.14986213, 0.0012809999, -0.06962464, -0.016557626, -0.23717707, -0.098569036, 0.026314216, -0.0046887766, 0.028394785, -0.12689888, 0.0671978, 0.03957567, -0.33835438, 0.10497425, -0.19336684, -0.26095214, -0.056756802, -0.030368457, -0.17287813, -0.05335207, 0.13594475, -0.24720865, 0.054231375, -0.19690606, 0.09166859, 0.095199145, -0.030699063, 0.034029663, 0.08500841, -0.0801134, 0.18551943, 0.23454152, -0.041397598, 0.014590554, 0.03357559, 0.059596878, -0.10971682, -0.18030757, -0.2430434, -0.042020824, -0.33559865, -0.19032139, 0.2451649, 0.0783634, -0.14640957, 0.28993103, 0.036639955, -0.1204729, -0.11304636, -0.048053544, 0.287966, -0.08537625, -0.21938886, 0.00966904, 0.020339476, 0.07927296, -0.26692292, 0.08551768, 0.2336685, -0.027723111, -0.11420679, 0.009889625, 0.04854128, 0.026966628, 0.20149732, -0.18389359, 0.036733955, 0.16933729, -0.38713077, 0.07919438, 0.09297188, 0.07509983, -0.3282106, -0.0011765346, -0.23433025, 0.10460594, 0.06345104, -0.2311855, 0.072237894, 0.017147034, -0.03178317, -0.027045973, -0.04267348, 0.15304737, 0.18780564, -0.28648072, -0.0052677398, 0.07000127, -0.12952262, 0.17882223, 0.32929325, -0.20735015, 0.047420103, -0.11907828, -0.2314151, -0.11276765, -0.08260789, -0.18979107, -0.10818995, 0.06531138, -0.06394107, 0.046674144, 0.119533926, -0.2551495, -0.058390215, -0.032501973, 0.11128918, -0.1617763, -0.11734134, 0.25858462, -0.0077129225, -0.16282634, 0.2935552, 0.0059376373, -0.22833401, -0.081527755, 0.0072366307, -0.07175202, 0.040334675, 0.026379192, -0.07869739, 0.13042231, -0.08056011, 0.051626053, -0.12804008, -0.051954255, 0.039520923, -0.025917936, -0.03379462, 0.19358003, -0.21928316, -0.14373589, -0.19299446, -0.09230314, -0.18218349, 0.076262735, -0.20827505, -0.13270742, 0.032463398, 0.062576815, -0.10093754, 0.071127996, -0.25126, -0.13741875, 0.021202317, 0.1458692, -0.1484628, -0.22337118, 0.4292499, 0.32818088, 0.07363848, -0.13094799, -0.10587832, 0.029685587, 0.0696886, 0.11170722, 0.103373244, 0.056181304, 0.06514314, -0.33619592, 0.13825877, -0.21044615, -0.010015314, 0.1760577, 0.021548947, 0.07862844, -0.197808, -0.22127366, -0.09788223, -0.13676125, -0.11506047, 0.17557704, -0.14850676, 0.039790954, 0.13037099, -0.1800354, 0.07528759, 0.04347343, -0.21777903, -0.20898141, 0.11843833, -0.30734155, 0.10917133, 0.13842565, -0.23210756, -0.08080064, 0.07110509, -0.036228355, 0.04961731, 0.17338346, -0.094595596, 0.11323409, -0.13513587, 0.1302427, 0.011395862, -0.2584597, 0.17105497, -0.06661706, -0.05678704, 0.07214345, 0.112670325, -0.17961268, 0.011821701, -0.21334718, -0.37888095, -0.041943274, -0.02686251, 0.070184685, -0.052275207, -0.022451773, -0.07756873, 0.09450744, -0.054283943, 0.119734354, 0.024213789, -0.23705658, 0.15706263, -0.062006015, -0.17109986, 0.12849574, -0.16138692, 0.089499764, 0.008527083, -0.21009438, 0.046809126, 0.16095814, -0.16938715, -0.16653496, -0.010540602, 0.046904687, 0.13891193, -0.061565235, -0.37670654, -0.0357968, 0.061790116, -0.01375354, -0.1897599, -0.29632005, 0.1275192, -0.06582424, -0.05915275, -0.045919538, -0.12241092, -0.018958794, 0.0005283648, -0.16371617, -0.1432542, -0.05916456, 0.15007703, -0.07455429, 0.14216919, 0.016664343, 0.177211, -0.21036138, 0.09701241, 0.24036896, -0.028879674, -0.3104943, -0.22587277, 0.06187571, 0.04904396, -0.4585632, 0.48094484, 0.33371896, -0.05831438, -0.059860323, 0.08875338, 0.23633589, -0.34227687, -0.41004768, -0.368534, 0.009958125, -0.123708814, -0.2504332, -0.08703965, 0.24042058, 0.17138028, -0.043296088, 0.15375732, 0.1499363, 0.036313523, 0.089427166, -0.16865271, 0.074105, -0.1302801, 0.03021606, -0.041021932, -0.04879086, -0.12493639, 0.029128172, 0.19049463, 0.0921546, 0.22482567, -0.009015387, -0.17586575, -0.14482771, -0.050909065, -0.033828426, 0.14352274, -0.102590665, -0.08386382, -0.02336174, -0.21144412, 0.15100579, -0.03965157, 0.1426107, -0.1980937, 0.0056482707, -0.17530827, -0.17884892, -0.10658675, 0.016516827, 0.07097991, 0.10058547, -0.06829476, -0.035608258, 0.22360787, -0.3091331, -0.012101614, 0.0653013, -0.026124014, -0.21171927, 0.0585379, 0.05096614, 0.030667221, -0.15630652, -0.047650244, -0.15159075, 0.058782432, -0.1560852, -0.21516517, -0.0438333, -0.06796433, -0.15651523, -0.019150848, -0.0064310697, -0.14659797, 0.07866516, -0.04570046, -0.21700531, 0.021575043, 0.14511125, 0.30935252, -0.07996722, 0.014521946, -0.2349403, -0.06204858, -0.12663993, -0.19565682, -0.0903417, -0.049425006, -0.013973019, -0.15469559, -0.058081962, 0.15503575, -0.08417296, -0.1185106, 0.22118653, -0.07892114, -0.25230724, -0.015577265, 0.17947681, 0.14127678, 0.24919683, 0.20807867, -0.05256066, 0.09107976, 0.15946889, 0.0588089, 0.0369446, -0.23402438, -0.27724218, -0.26269484, -0.09758609, -0.2092357, -0.15137894, 0.03937548, 0.014538476, -0.0748554, 0.024681492, -0.03680842, -0.14529167, -0.116463505, -0.14912744, 0.012764676, 0.23007844, 0.18097647, -0.034902614, 0.04377485, -0.10392211, -0.19965366, -0.35993487, -0.09848288, -0.08052944, 0.03267307, -0.03189089, 0.21210915, -0.28609267, -0.08028143, -0.45078692, -0.27213216, -0.09519567, 0.07613781, -0.12765424, 0.06762822, -0.017612593, -0.13959004, -0.12046346, 0.07691084, 0.0938607, 0.13135259, 0.10813409, 0.016870514, -0.09519876, 0.06476631, 0.3570736, 0.18620099, 0.17628054, 0.040680606, -0.01484857, -0.26461288, -0.026502568, -0.03939179, -0.12658292, -0.32335803, -0.22508131, -0.27749008, 0.056495056, 0.24076721, 0.25660288, 0.067581765, 0.085592315, -0.05375007, -0.14651613, -0.1564274, -0.18795969, -0.09073505, -0.12688085, 0.19366342, -0.23665766, 0.03425184, 0.01337546, 0.05185463, 0.08287394, -0.112370536, -0.06885795, -0.17292401, 0.008901017, 0.13687928, 0.058541536, -0.13765675, -0.24086575, -0.16469969, 0.010272848, -0.029639367, 0.27008602, 0.21819298, -0.034121234, -0.18863478, -0.3317972, -0.07064992, -0.1361195, 0.016723404, -0.108865686, -0.13187471, -0.0006490986, -0.039482694, 0.023797045, 0.24154745, -0.03803631, 0.36123377, 0.25125882, -0.36701384, -0.42753345, -0.070488304, -0.061276525, 0.20445697, -0.065462805, 0.19788308, -0.21999702, 0.00508879, 0.040001154, 0.102331646, 0.12354342, 0.06754296, 0.051655486, -0.097896956, -0.24736784, -0.020716796, 0.11949596, 0.206483, 0.012420585, 0.051047407, 0.0578406, 0.14326021, 0.07763492, 0.074658446, -0.018810559, -0.2738471, -0.07239723, 0.013973198, -0.19445844, -0.18110201, 0.2346343, 0.17030904, 0.13829935, 0.22256708, -0.27726498, -0.12602392, -0.20433895, 0.10059958, 0.06795946, 0.28972486, -0.15919097, 0.11928262, 0.2492516, 0.13121921, 0.10574331, -0.1855382, -0.21482608, -0.06570931, -0.21715635, -0.23349178, -0.5006003, -0.46189702, -0.065194875, -0.08789815, -0.17554772, -0.17947336, 0.006270295, -0.014041022, -0.050037265, 0.055398516, -0.046010505, -0.027962703, 0.0021259289, 0.13406381, 0.015214533, 0.1798027, -0.010799078, 0.11061434, -0.058124054, -0.16376698, -0.1660675, 0.00072367257, -0.11226323, 0.21294278, -0.18675958, 0.009078645, 0.0001786027, -0.07304801, -0.14786345, -0.17673329, -0.15585347, -0.13361335, -0.13917261, -0.016903294, -0.14970726, -0.06881636, 0.062591255, 0.10083691, 0.23072004, 0.24381123, 0.23298392, 0.13981004, -0.14322966, -0.06306959, -0.07903516, 0.11988333, 0.1798074, 0.062406678, 0.059339058, -0.0252079, -0.17861414, 0.11910046, -0.013911168, 0.06875308, 0.12453654, 0.13666539, -0.063842274, -0.31886032, -0.039617326, 0.3157347, -0.19449788, -0.32211962, -0.18421295, -0.11736877, 0.06474891, 0.18963465, 0.069578834, 0.013759513, 0.07141, -0.27990565, -0.058674328, -0.11068633, -0.18332292, -0.035560157, 0.07019972, 0.033731226, 0.12363628, 0.041086454, -0.049336843, -0.17780404, 0.17376824, 0.103402846, 0.060040034, -0.16776796, -0.047155134, 0.14424525, -0.14583021, -0.0026664108, -0.1375937, -0.108546145, 0.032160453, -0.09097264, 0.002649412, -0.047325835, 0.12574604, 0.14136334, -0.12933189, 0.0726116, 0.12155379, -0.24907166, -0.33224735, -0.10741569, -0.30226165, -0.45780888, -0.12664595, -0.32663473, 0.13590962, -0.008233467, 0.14146301, -0.21750946, -0.096380025, 0.25245565, 0.15908642, -0.15095612, -0.124673665, 0.008202676, -0.060539924, -0.15032215, 0.25598365, 0.30174637, -0.15675968, -0.15765622, 0.10708648, -0.07195231, -0.10896402, -0.19865425, 0.19012474, 0.16212001, 0.21839318, 0.024153281, 0.21644448, 0.25907564, 0.2431726, 0.03883092, -0.05557749, 0.29297367, 0.008201281, -0.15905844, 0.14166078, -0.03877294, -0.06017678, 0.16824439, 0.1588555, -0.20775382, 0.17584144, -0.1013771, -0.4129355, 0.06840674, 0.10461612, -0.20737007, 0.090927176, -0.04255573, -0.04272504, 0.2511479, 0.022197923, 0.0026562435, 0.07278138, 0.037075642, 0.19796364, -0.27459046, -0.24476291, 0.12769268, -0.21584648, -0.09721365, 0.24461134, -0.37613878, -0.20018108, -0.10064365, 0.102966696, -0.15065865, -0.09156611, 0.105899565, -0.25310612, -0.19637385, -0.014421225, -0.32686678, -0.21851987, -0.16416249, 0.056313068, 0.12778948, -0.14077978, 0.037721954, 0.060927887, -0.023253815, 0.0381888, 0.11033285, 0.07757403, 0.11090689, 0.037822656, 0.034679346, 0.025718743, -0.27356195, -0.037689324, 0.04995156, 0.045261115, -0.17356636, -0.084200256, -0.008016508, -0.17728372, 0.08564016, 0.061661832, 0.121345595, 0.17313051, -0.11718772, -0.041134614, -0.14700522, 0.17826104, -0.19304211, -0.1799507, -0.34693703, 0.065578386, -0.034744617, -0.17640314, -0.08755564, -0.08514716, -0.121531114, 0.08374449, -0.33258468, -0.34525678, -0.16126916, -0.21512699, -0.21463981, -0.12294706, 0.023312433, 0.20470807, -0.066673756, -0.074064426, -0.1908706, 0.04226603, 0.020772524, 0.011748064, -0.057200927, -0.14769964, 0.2226917, -0.027677046, 0.13288635, 0.21941623, -0.0002067453, -0.010047418, -0.013200275, 0.014624298, -0.2315483, -0.22066288, -0.13267425, 0.021525815, -0.054618277, 0.00823049, 0.19085269, 0.0022969258, 0.043723445, 0.14827037, 0.19189158, 0.08045144, -0.021938201, -0.040286873, -0.19632368, -0.10039422, 0.16980842, -0.057759188, 0.13615428, -0.03838391, -0.15535067, -0.29540864, -0.18256025, -0.15140738, -0.0690978, 0.016656242, -0.24602284, -0.037440937, -0.100933716, -0.19063172, -0.021326719, -0.026736517, 0.045014016, 0.047538754, -0.08910376, 0.027852768, -0.08817925, -0.11148598, -0.18894345, 0.1577822, -0.09584863, 0.1279244, -0.039022375, 0.006383014, 0.052102003, 0.05448852, 0.1272451, 0.2769849, -0.012028005, 0.024210077, -0.16874537, -0.10833732, -0.121157415}
#define Layer3_weight_SHAPE { 16, 6, 3, 3 }

#define Layer3_bias_arr {0.18475787, -0.093800224, 0.07253091, 0.09974281, 0.07039078, 0.11257042, 0.05859934, -0.05825537, -0.14721158, -0.027133992, 0.044305038, -0.120301686, 0.13278191, 0.021818638, -0.020967964, -0.085307404}
#define Layer3_bias_SHAPE { 16 }

#define Layer7_weight_arr {-0.09392236, -0.07953013, 0.2461641, 0.3284008, 0.11526787, -0.030513745, -0.057938624, -0.07635254, 0.052839883, -0.15487377, 0.03159791, 0.09476636, 0.07374066, -0.0513452, -0.3568079, 0.04651594, 0.07381254, 0.08974942, 0.059024323, 0.090124324, 0.008614261, -0.04211408, 0.04770591, 0.07014632, 0.15526548, -0.054776784, -0.32429817, -0.035239074, -0.006844629, 0.06874658, 0.04567415, -0.15517455, -0.124564335, 0.14438605, 0.06548532, 0.16180187, 0.15165779, 0.025534986, -0.09409274, -0.03244631, 0.08673795, 0.10670212, -0.042500135, -0.044152223, 0.00606301, 0.02602318, -0.046260834, 0.024387253, -0.05105602, -0.0672116, 0.03741933, -0.30741113, -0.25333545, -0.007474456, 0.17528611, 0.09023038, -0.009939416, -0.26783034, -0.07273496, -0.018862657, 0.024042584, -0.004141107, -0.15871811, 0.092864156, -0.08495972, -0.18025503, -0.08537224, -0.015897706, 0.035591118, 0.05979448, -0.0554217, 0.064955726, 0.08367314, 0.02279158, 0.07519592, 0.02046611, 0.13403538, 0.08999542, -0.069045946, -0.16052486, -0.05448833, 0.051051255, -0.017520491, -0.028797057, -0.09535614, -0.06598873, 0.031926233, 0.13955414, -0.08191684, -0.20012985, 0.020920502, 0.092511, 0.08417318, -0.1326085, -0.22844967, 0.08196259, 0.08703403, -0.09930531, -0.009863594, -0.11094635, 0.040034097, 0.011446089, -0.052935697, -0.28196922, -0.35314968, -0.012564715, -0.03044187, -0.009762685, 0.0279204, -0.14458933, -0.079634264, -0.058177426, -0.11085427, -0.057245623, -0.01268956, 0.041628644, -0.069015585, -0.087230556, -0.12530425, 0.18281099, -0.03349716, -0.067257166, -0.03435277, 0.1536802, -0.090139754, -0.21593808, -0.19968913, 0.0048412867, 0.1020811, -0.035552606, -0.091879904, -0.04161853, -0.0201308, -0.069980234, 0.032780908, 0.040586967, 0.15149526, -0.08376587, -0.016969845, -0.019966563, 0.04804558, 0.09449408, -0.08892782, -0.21561955, -0.07793295, 0.055378225, 0.009580655, -0.028123738, 0.21434833, 0.09253925, -0.0117986, 0.12738799, 0.10826384, 0.10059815, -0.0046617794, -0.06334857, -0.2077764, 0.19609424, 0.15152285, 0.016510624, -0.069712035, -0.3128726, 0.11901731, 0.017346343, 0.017435227, -0.08630611, -0.078417376, 0.13245983, 0.06915469, -0.04546691, -0.04046512, 0.15960589, -0.02901015, 0.02805935, 0.045213737, -0.14527832, 0.06986304, 0.19024865, -0.005472074, -0.051458377, 0.05464035, -0.0800792, -0.17438468, -0.12531596, -0.15832737, -0.13477893, -0.08095447, 0.14142528, 0.17659724, -0.005350356, -0.06355096, -0.024894774, 0.019214248, -0.024940392, -0.17654808, 0.08293434, 0.055119473, -0.042612385, -0.10258241, 0.0015269144, 0.0740764, 0.25940904, -0.14541106, -0.06168815, -0.15485755, -0.013101154, -0.103474244, -0.11200416, -0.1059258, -0.14811389, -0.02339774, -0.117375806, 0.054973852, 0.124438286, -0.05579336, -0.042439085, 0.060061652, 0.053030368, 0.022842236, -0.240778, 0.17648898, 0.123614915, 0.053759843, -0.053227685, -0.07156526, 0.062248997, 0.074336305, 0.06564043, -0.07557381, -0.21918187, -0.023905693, 0.09137467, 0.18350291, 0.06644591, -0.10621811, -0.13521889, 0.11024446, 0.10248399, 0.12367552, -0.06687338, -0.25047377, 0.0031333743, 0.091830835, 0.14296639, -0.16728327, 0.120227635, 0.16834596, 0.031101303, 0.02304721, -0.04585905, -0.067074366, -0.1040571, -0.1426493, -0.037677713, 0.031681612, 0.03168859, 0.0846607, 0.06863425, 0.10086475, -0.04592599, 0.06114314, -0.09349172, 0.092767075, 0.076205656, -0.098835275, 0.075439036, -0.030138554, -0.046231396, -0.058596004, -0.08462996, -0.02273261, -0.020444347, -0.05718066, -0.097005054, 0.14239007, 0.05569449, 0.08053732, 0.02983038, -0.03667942, -0.26164052, -0.0013233454, -0.00031357296, 0.0538058, 0.064109094, -0.29411754, -0.17614093, 0.046021815, 0.076383285, 0.035475455, 0.026909549, -0.044241365, -0.11696374, -0.042235732, 0.112808645, 0.079619564, 0.054370694, 0.10092632, 0.052993983, -0.06217068, -0.16218261, -0.10201266, -0.1275497, 0.06989871, 0.20381838, 0.10876967, -0.23290561, -0.08807201, 0.17879452, 0.020927338, -0.025282798, 0.054037675, 0.22212915, -0.041428443, -0.036554653, -0.12938115, 0.11214354, 0.07852915, -0.061828833, -0.038109727, -0.026645863, 0.10595486, -0.014269573, -0.07921201, -0.04745159, 0.1439878, -0.169346, -0.20233668, -0.1079987, 0.07252645, 0.1478135, -0.027040532, -0.0126462495, -0.16523051, 0.034455523, 0.011768168, -0.06696269, -0.2175793, -0.033050984, 0.025539635, -0.010221974, -0.05641475, -0.20530823, -0.07839044, -0.012924316, 0.08122356, -0.085705176, -0.11255117, 0.053895883, -0.016122436, 0.12302763, 0.0030279986, 0.06134326, 0.045402378, -0.023970943, -0.11282619, 0.007509847, -0.123351865, -0.0004088436, 0.050341755, 0.009025237, -0.095355704, -0.14704308, -0.042381596, 0.04324895, -0.08779511, -0.0116019435, -0.020832561, 0.036555752, 0.05398381, -0.05909436, 0.16070282, -0.09691156, -0.02777125, 0.08533548, 0.09905157, -0.08430397, 0.17366903, 0.18689409, 0.024424471, -0.2137455, 0.09049635, -0.019056506, -0.06574472, -0.106985666, -0.13868031, -0.077302955, -0.008121899, 0.12414109, 0.09297709, -0.023706982, 0.02334016, -0.026611134, 0.10577685, 0.034190547, -0.13533612, -0.027714664, 0.06428771, -0.049505297, -0.021669615, -0.065970555, -0.093051724, -0.031862523, -0.06904768, -0.01921457, -0.039873797, -0.018274091, -0.029743772, -0.06305927, -0.053532816, 0.026241133, -0.019810969, -0.09770066, -0.036167793, -0.08574761, -0.0115123885, 0.0047766543, -0.028997129, -0.010059507, -0.106788084, -0.021519447, -0.033991333, -0.0074749156, -0.033608504, 0.040298715, -0.0069464045, 0.06548508, 0.018357074, -0.044005845, -0.026285456, -0.028860413, 0.0026122036, -0.05263588, -0.09008619, 0.011040911, -0.060400523, 0.028852237, 0.009760177, 0.067686886, -0.054132357, -0.06742356, -0.008235345, -0.053263914, 0.028662922, -0.08376354, -0.04135815, -0.009863392, 0.01774337, -0.056762647, -0.112159945, 0.0410536, 0.014109546, -0.04845503, -0.04790084, 0.02555298, -0.058359552, 0.027672384, -0.071875915, -0.07452308, -0.031180976, 0.0051367623, 0.006813489, -0.0615167, -0.050073087, 0.02815548, -0.021382807, 0.02095662, -0.05986315, -0.10023902, -0.044162698, -0.07841472, 0.04543517, -0.011979984, -0.03067474, -0.00025984427, 0.017261904, -0.024294244, -0.07850988, -0.09777347, 0.010494443, -0.018209865, -0.060424607, 0.03574653, -0.05961659, -0.0362948, -0.0374207, 0.011273286, -0.040920943, -0.0988712, -0.083128944, -0.043321464, -0.016892271, -0.043337148, -0.0122337695, -0.026209872, -0.04647598, 0.008976715, 0.012002134, -0.016733976, -0.008541617, -0.031765454, -0.08231732, -0.055332944, 0.022685831, -0.004391331, 0.054115012, -0.09820368, 0.012152539, -0.028018415, -0.009549693, -0.013580634, -0.07300324, -0.08103328, 0.026778225, 0.0025185, -0.024752593, 0.006247312, 0.00084406073, 0.029925177, -0.005153392, -0.04974907, -0.07369211, -0.060444333, 0.005173363, -0.026345966, 0.0061444584, -0.036551014, 0.013120173, -0.034361754, 0.015259293, 0.02323655, 0.027812157, 0.0009378877, -0.022359144, -0.06827161, -0.052980922, 0.017281063, 0.033572078, 0.018729974, -0.082584314, -0.049588934, -0.06986677, -0.03275707, -0.09996548, -0.019381233, -0.047630582, 0.031071473, -0.068704404, -0.09474375, -0.09311115, 0.024500556, -0.023600077, -0.1083866, -0.06045787, -0.11100704, 0.007717192, -0.018799996, -0.029754162, -0.07682565, -0.07079427, -0.057891134, -0.036052775, -0.011478554, -0.044067286, -0.035020072, -0.07562994, -0.018267024, 0.005016791, -0.067741275, -0.022020696, -0.03766563, 0.020025304, 0.024548935, -0.044163816, -0.021880737, -0.08076119, -0.042248067, 0.009847091, -0.07768733, -0.06228667, -0.01111911, 0.017553069, -0.0065182825, 0.018794242, 0.0010237256, 0.0007050952, 0.01515865, -0.009786212, -0.057281695, -0.09354224, -0.023914136, 0.016068578, -0.017932678, -0.025961544, -0.014755259, 0.014346943, -0.003551424, -0.07058532, -0.05178113, -0.023825211, 0.0065305023, -0.022318231, -0.031759646, -0.073226854, -0.05060605, -0.0057175644, -0.007147839, 0.03718215, 0.014115188, -0.031959996, -0.075242944, -0.003841943, -0.022041617, -0.038578246, 0.009376833, -0.064045615, -0.07119217, 0.0016141068, -0.019027775, 0.0020860033, 0.02367834, -0.036912862, -0.06756211, 0.002504912, -0.020692073, -0.061151616, -0.06921847, -0.023613548, -0.0053652567, -0.00883643, -0.06601674, 0.012846084, -0.071053036, -0.05522817, -0.06180403, -0.033181056, 0.020718034, -0.030792251, -0.051191945, -0.059391472, -0.07614755, -0.07949168, -0.11262906, -0.07932786, -0.00061642355, 0.021029107, 0.028376572, -0.036072373, -0.017119138, -0.03495436, 0.042991526, -0.057473067, -0.022662345, 0.0051918575, -0.014479128, 0.0017847263, -0.061915427, -0.045220267, 0.008078019, -0.0047271564, 0.0025597604, -0.03351259, 0.021361176, 0.010980509, -0.07879917, -0.067279294, -0.053227644, 0.00010145643, -0.077688634, -0.0051386, -0.07448333, 0.01180935, -0.055547405, -0.02037077, 0.016130725, -0.040356677, -0.026362898, 0.007853557, 0.007206351, -0.03382197, -0.056662317, -0.06147244, -0.07485594, -0.09486665, -0.029785907, -0.060872737, -0.04930855, 0.00172184, 0.0016716027, -0.06088377, -0.0101615265, -0.008845259, -0.037701562, -0.04806316, -0.019473527, -0.071418166, -0.073628545, -0.031284407, -0.017593406, -0.034968123, -0.029198742, 0.001165176, 0.024172807, 0.043193538, -0.036687497, -0.031748895, 0.07991156, -0.037029676, -0.003736903, 0.00526112, -0.021532979, 0.035096504, 0.0077358084, 0.008824817, -0.06480378, -0.053854134, -0.08292395, -0.0007133628, -0.029353641, -0.015065184, -0.08493406, -0.026600132, -0.005017433, -0.062372234, 0.08114391, 0.036988188, -0.04701255, -0.014238307, 0.012688794, 0.018034982, -0.061015952, 0.020001668, -0.017531015, -0.027404144, -0.020560095, 0.012809866, -0.023034725, -0.0152053125, -0.015333631, -0.01788586, -0.052381348, -0.082604356, -0.025900591, -0.031758785, -0.013815639, -0.058461025, -0.001361937, 0.028673986, -0.014561387, 0.005029476, -0.032200646, -0.027122475, -0.0060640555, 0.01599751, -0.019970227, -0.0057859938, -0.034051273, -0.03366937, -0.03276495, -0.016508998, -0.03185348, -0.026645206, -0.006666343, 0.013481416, 0.017745286, 0.018010903, -0.0013667409, 0.00025750548, -0.0023338543, 0.024623504, -0.0011682019, -0.011155873, -0.0007726884, -0.04290016, 0.030664502, 0.007995585, 0.012814256, -0.031551097, -0.034683745, -0.02556642, -0.051952515, -0.061601624, -0.04340046, 0.016453458, -0.028343165, -0.020644218, -0.021045435, -0.028933672, -0.09909285, -0.032318, -0.034676954, 0.0232076, -0.030603362, -0.019321674, 0.0030950634, -0.054576088, -0.08433538, -0.036359154, -0.042740338, -0.033961874, -0.037200537, 0.05172903, -0.07157442, -0.19279183, -0.15749793, -0.18678631, 0.053057767, -0.16113648, -0.22793959, -0.12634514, 0.099937715, -0.0036773065, -0.019759092, -0.022763032, 0.038268737, 0.3241155, -0.07697269, -0.117901884, -0.09565725, -0.06346793, -0.12848769, -0.04870097, -0.004164879, -0.054910216, -0.12833354, -0.12404704, -0.0692926, 0.18943866, 0.092149384, 0.10084115, -0.114006005, 0.03511102, 0.04414722, 0.011986155, 0.031851172, 0.022268254, 0.08144435, 0.21457154, -0.1012672, 0.0057024015, -0.030391732, 0.127709, -0.06409381, 0.15150781, 0.08721112, -0.0042203115, -0.051976137, -0.11422207, 0.13842303, -0.03431408, 0.15411349, -0.03693183, 0.112703405, 0.055155832, -0.30488387, -0.1158604, 0.06635393, 0.09207885, -0.0004970821, -0.13537852, -0.05042011, -0.13159187, 0.1728318, 0.029877104, 0.092805535, -0.014013356, -0.022314629, 0.016842762, 0.062506184, -0.03564709, -0.08110089, -0.006855005, -0.1685842, -0.0021426664, -0.033608608, -0.018148394, -0.0001402266, -0.039259583, 0.03224159, -0.17120557, -0.07825728, -0.039010435, 0.049672443, 0.1246003, 0.15814829, 0.054975018, 0.07135728, -0.07931369, -0.07853368, 0.059176523, 0.06738054, -0.011535241, -0.039929353, -0.03967183, 0.02166767, -0.14505436, 0.034016475, 0.0327522, -0.038767293, 0.010020224, 0.07541594, -0.004109165, -0.04010987, -0.074007556, 0.04203797, 0.10932664, -0.009398466, 0.07153011, -0.020278132, -0.031776864, -0.08604752, 0.05948449, 0.08791589, 0.060922373, -0.0025882996, 0.092250384, 0.0039545028, -0.042451907, 0.006491139, 0.097108364, 0.06700458, -0.06594984, 0.11544783, 0.057236336, 0.07261619, -0.0023646678, 0.0075777494, 0.08137975, -0.07129277, -0.16199756, -0.07241008, -0.012889242, -0.022897393, 0.086965896, 0.1733562, 0.18736829, -0.08481119, -0.0881748, -0.20654199, 0.07438135, 0.02700231, 0.06628738, 0.06846159, -0.0056167827, 0.0694307, -0.13968448, -0.040193666, 0.11395737, 0.07649761, -0.06424286, -0.072299875, 0.05963029, -0.0086153755, -0.108786516, -0.029896908, 0.07019111, 0.04639644, 0.05891631, -0.15935673, -0.10421467, 0.054311875, -0.0062842355, 0.058331974, 0.05595804, 0.0052036983, -0.014386395, 0.039323285, -0.046880394, 0.045747723, -0.08724603, 0.1395332, 0.030047072, 0.016694237, -0.11825027, -0.02870834, 0.11278327, -0.04561219, 0.07245781, -0.08146104, -0.1058464, -0.038333546, -0.13682298, 0.06522527, 0.08576994, 0.0020845307, 0.09874945, 0.024235493, 0.05861628, 0.075508215, 0.14740227, 0.095496595, 0.018416332, -0.07676227, 0.031431798, 0.050438102, -0.0014763727, -0.054505125, -0.041887805, 0.013040343, 0.00069305353, -0.026752401, -0.09128308, -0.0065676826, 0.1370274, 0.12174662, 0.08256292, -0.106267124, -0.0033529836, 0.042401522, 0.0054023745, 0.10302659, -0.118326046, 0.08985196, 0.025475604, 0.1942636, 0.03325156, -0.0050257416, -0.023837654, -0.02995656, 0.1440782, 0.017827403, 0.08482835, 0.049879793, 0.014221782, 0.07830797, -0.035190113, -0.14406626, -0.088533595, -0.06657457, 0.009542708, 0.0614261, -0.055729207, -0.075715706, 0.03620664, 0.02512365, 0.012493773, -0.10778133, 0.00906058, 0.04843607, 0.03978055, 0.04137861, -0.08086149, -0.040462255, -0.12625305, -0.093030415, -0.10694248, 0.029198172, -0.08610365, 0.063788496, -0.092644915, 0.0030324762, 0.115265734, 0.07811584, 0.053677913, -0.021166865, -0.010304003, 0.07894896, 0.036524165, -0.03344916, 0.065839835, 0.048861273, 0.057834513, 0.10943814, 0.033276383, -0.06937219, 0.03606296, -0.04418537, -0.023387283, 0.043082446, -0.008825334, 0.063065074, -0.23223422, 0.07934737, -0.013041433, 0.005528902, 0.093732186, -0.07728271, -0.18725805, -0.011255913, 0.021685896, 0.13338186, -0.13329628, -0.000712058, 0.17924102, 0.2102971, 0.20345022, -0.13760066, -0.18269418, -0.03209145, -0.09212141, -0.06245279, 0.0059650084, -0.06073405, 0.047226183, -0.06452785, 0.07329768, 0.15454498, 0.030253911, 0.023213467, 0.33083954, 0.039334178, 0.018048782, -0.03179356, -0.29978737, -0.23920819, -0.17228353, 0.1578966, 0.061946616, 0.034116242, 0.027500939, 0.10931617, 0.045678686, -0.14325568, -0.09921706, 0.007470393, 0.10272327, -0.016118176, -0.06495621, 0.011631673, -0.15162572, -0.064657785, 0.010117252, -0.12209888, -0.1390455, -0.10105507, -0.02144117, -0.009791364, 0.2323328, -0.014584593, -0.16121903, -0.10783098, 0.22263987, 0.17849231, -0.00074619224, -0.12859242, -0.04397799, 0.30814084, 0.07503959, 0.015137167, -0.01040016, 0.10321343, 0.022248063, -0.03188121, 0.059684757, -0.015399205, 0.067199185, -0.0023830603, -0.04905415, -0.020646745, -0.14604057, 0.045639627, 0.01769385, -0.02523217, -0.17843522, -0.04120612, 0.15537518, 0.091312855, 0.0228327, 0.007429563, -0.07117298, 0.061172534, 0.06930783, 0.06652357, -0.120042, -0.029237749, 0.017466994, -0.09827736, -0.060043387, -0.057873443, -0.034225155, 0.01758231, -0.057098456, -0.053277574, -0.12400087, 0.051421754, 0.030447112, 0.07368628, -0.049003463, -0.13575639, -0.120720685, -0.05334696, -0.07228161, -0.08976811, -0.021983154, 0.041998066, 0.19473925, -0.030802298, -0.027548509, 0.052058868, 0.025123414, 0.011397461, -0.03399113, -0.105578385, -0.055656407, -0.09493232, -0.045089867, 0.00048426245, -0.00012504903, -0.036348194, 0.062429883, 0.089560494, -0.061687455, -0.03371165, -0.014304568, -0.049558073, 0.00906353, -0.052080255, 0.021977056, 0.0069950307, -0.0056680716, 0.010017412, -0.023478515, 0.0033066382, -0.044204924, -0.034264818, -0.044202853, -0.05368676, -0.05054342, -0.047776163, 0.0008398719, -0.024379605, -0.026160594, -0.005176457, 0.018277455, -0.0008583048, -0.035751488, -0.012140617, 0.029471979, -0.046168197, -0.032294787, 0.022675598, 0.02169147, 0.03476027, 0.01896291, 0.04438743, -0.024854988, -0.07073778, -0.06968593, -0.053794734, -0.002234177, -0.012245819, -0.05779554, -0.012815342, 0.047547005, -0.07254326, 0.019991836, -0.0097426735, 0.008757475, -0.015619515, -0.021024445, -0.027855575, 0.020594893, 0.014274604, -0.051964905, -0.024131943, -0.038231812, -0.043688834, -0.0701882, -0.056073077, 0.0032369138, -0.06268967, -0.01714761, -0.06798749, 0.014818919, -0.019246658, -0.018105652, -0.036093153, 0.025746223, -0.04474444, 0.023901965, -0.002163093, 0.010073702, 0.038204692, -0.0015030662, -0.040153757, -0.027884478, -0.07139663, 0.021361755, -0.04273189, -0.009321447, -0.05244337, -0.07313669, -0.029812854, 0.006990699, -0.04475659, -0.0012650718, -0.047178622, -0.026928877, -0.0017628645, -0.027167598, 0.008493965, 0.022363547, -0.018344086, -0.015854122, 0.012495904, -0.06398404, -0.024567617, 0.013684492, -0.03877998, -0.02308368, -0.019286346, -0.001468968, -0.028484069, -0.037445664, -0.013159741, -0.036646016, -0.017473685, 0.017209863, -0.03519167, -0.04332595, -0.007636914, -0.024093458, -0.06415938, -0.027925467, -0.007538146, 0.03718667, -0.023422342, -0.046764653, -0.0021977725, -0.008120819, -0.0504013, -0.06780266, -0.054673877, -0.041198295, -0.001828217, -0.045440953, -0.023937564, 0.015183648, -0.050742228, -0.039718024, -0.0325538, -0.02828653, -0.03465965, -0.04923395, -0.0032937767, -0.013631706, -0.05446418, -0.0054779043, 0.0115503315, 0.038852323, -0.018577982, -0.028673524, -0.0099219475, 0.029458284, 0.003641514, -0.030977225, 0.0014892225, 0.0025077988, -0.012221939, -0.023246933, -0.0500102, -0.04085026, -0.033283435, 0.020033496, -0.007305275, -0.021045461, -0.05660662, -0.007755726, -0.026334973, -0.021240873, 0.016668549, 0.020877663, -0.043084193, -0.00057455164, -0.01424763, -0.05262222, -0.019955413, -0.02297401, -0.036298055, -0.06657634, 0.031961683, 5.5846038e-05, 0.033102475, -0.03116348, 0.025744356, -0.005447346, 0.02125927, -0.014807492, -0.011879043, -0.03487551, 0.0050935447, -0.028255647, 0.0051827664, -0.01125923, -0.05848653, 0.0074427654, -0.0033731346, -0.036794756, 0.033577397, -0.044965617, -0.032538228, 0.0055887112, -0.056460593, -0.04292429, -0.027910307, -0.04191978, -0.06067364, 0.012798625, 0.0075877584, -0.01203364, -0.040119182, -0.03540396, 0.025637066, 0.0015324528, -0.037108175, -0.057615336, 0.016081674, -0.06389995, 0.015402871, -0.05083399, 0.022199359, -0.05866882, -0.048313864, 0.00780153, -0.026530063, -0.062175743, -0.06046486, 0.0042547532, -0.045854922, -0.055344466, -0.044779167, 0.0010978522, -0.015147653, -0.008171737, -0.042716216, -0.049019773, 0.0004779995, -0.019351179, -0.0035147355, -0.008724189, -0.02022428, -0.018728307, 0.011578467, -0.05823813, -0.059220944, -0.024706617, -0.057960425, -0.00602489, -0.044692606, -0.039864942, -0.033110723, 0.022045625, -0.05261224, -0.028178759, 0.010248266, 0.013593714, -0.04986657, -0.0034378355, 0.016475301, -0.052660212, -0.0075956616, -0.05613869, -0.06983694, -0.0049485634, 0.0069751544, 0.0064217458, -0.035301726, 0.025898244, -0.002107062, 0.017815469, -0.023455648, -0.011504486, -0.025611434, 0.031642858, -0.021666719, 0.014238872, -0.020189732, -0.049614016, 0.011157282, 0.019022588, -0.06863908, 0.013707759, -0.0081057465, 0.03204355, -0.05270299, -0.045863457, -0.005692138, -0.030287039, -0.013426579, 0.013320735, -0.037810244, 0.024841899, -0.052323196, 0.022587217, 0.03372688, -0.013096677, -0.043285754, 0.020878237, -0.02420405, -0.0491349, -0.012142488, -0.0014399013, -0.03221027, -0.021685963, -0.041628633, 0.011572824, 0.0057514026, 0.006002539, 0.0014103579, -0.048914336, -0.05439632, 0.010855033, 0.013901542, -0.014527506, -0.029824752, 0.037258588, -0.00810076, 0.020424487, -0.018176597, 0.019778267, 0.007020131, -0.021330118, -0.037428506, 0.048102677, -0.02238357, 0.013280254, -0.016916782, -0.036721893, -0.060869448, -0.057442408, 0.012705525, 0.012323528, 0.002444123, 0.022255022, -0.06980598, 0.029496098, 0.016549047, -0.019707527, -0.028513493, -0.04678415, 0.008008727, -0.011050983, -0.050529793, -0.02486299, -0.03702458, -0.018906135, -0.06436159, 0.0017844257, -0.046531748, -0.026846644, -0.022163872, 0.0007347593, 0.024847325, 0.00061596447, -0.022785012, -0.0624031, -0.052107763, 0.015629787, 0.043050725, -0.051718116, 0.006938, -0.04880752, -0.009932833, -0.062175017, -0.0007091605, -0.02241922, 0.024507036, 0.0066355136, -0.03098444, -0.040941317, -0.04873874, 0.04285079, -0.054232612, -0.040161554, -0.0543571, -0.032617357, 0.009120794, 0.01681656, -0.017595548, -0.031552248, -0.04089945, 0.0041655563, -0.035608094, 0.005887013, -0.04224107, -0.020064443, -0.056354515, -0.017724764, 0.021534048, -0.020356594, -0.015248596, 0.018561466, -0.06748247, -0.0076921866, 0.0136246355, -0.0030878833, -0.0059375577, -0.030200038, -0.0070335087, 0.0079893125, -0.024849843, -0.016959352, -0.047869194, 0.028789582, -0.026573278, -0.07019312, -0.022198888, 0.005547211, -0.03191753, -0.03678963, -0.060797, -0.077858396, -0.04851205, 0.06823915, 0.18381138, 0.21147771, -0.066750064, -0.14558724, 0.0012061038, 0.012021718, -0.09364176, 0.096586496, 0.056605022, -0.032132052, -0.016343273, -0.36141732, -0.06815661, 0.05841714, -0.07876793, -0.115410596, -0.3204884, 0.012285092, 0.005763495, 0.06477422, -0.25841367, -0.09067022, 0.031885393, -0.21000062, 0.007809038, -0.03225906, 0.0074603115, 0.05832055, -0.12399527, -0.068584144, 0.088522084, -0.0053050728, 0.08374824, -0.04800033, -0.09301235, -0.04609329, -0.006316421, 0.09027348, -0.07263701, -0.10876114, 0.17033334, 0.0073392414, 0.069392234, -0.08133951, 0.007863298, 0.09806473, -0.046607547, 0.04472583, -0.008923515, -0.51514983, 0.049703375, 0.08609013, 0.16846116, -0.08473241, -0.23970598, -0.018291354, -0.08079523, 0.19890137, 0.1295194, -0.16772223, 0.08853345, 0.010193598, -0.13637961, -0.120453455, 0.15964821, 0.10199356, -0.0118579855, 0.061973132, 0.15922487, -0.040016018, 0.11919057, -0.08516141, -0.01916512, -0.03269646, 0.014172231, 0.050043035, -0.03740736, 0.07520586, 0.03074057, 0.19751857, -0.038745537, -0.019826341, -0.06737903, -0.037596624, -0.12777883, -0.044423625, -0.18979707, -0.070796244, 0.06338656, 0.0068938034, -0.20391518, -0.18937418, -0.044238877, -0.037370775, -0.16753316, -0.13856533, -0.26186928, -0.17305914, 0.029899865, -0.0096032685, -0.38219252, -0.21924743, -0.017175213, 0.03405359, -0.056395497, -0.080257036, -0.12696062, 0.033858955, 0.13899206, -0.111129805, -0.06304547, 0.07850102, -0.11233293, 0.09969699, -0.033504345, -0.059007913, 0.12545803, -0.01475237, 0.118007526, 0.1080603, 0.12757039, 0.13753188, -0.10545844, 0.016015239, -0.0381837, 0.09665942, 0.07617279, 0.08839032, 0.05037418, 0.11156042, 0.037008293, -0.09307004, -0.14209782, -0.1999236, -0.20227994, 0.12998277, 0.07569677, 0.003002094, 0.07323745, -0.020519184, -0.30852416, -0.18242426, 0.090678446, 0.04095925, -0.23696098, -0.0465224, -0.21286674, -0.14529678, -0.10211025, 0.09740205, -0.05657778, 0.09450186, 0.040801197, -0.09369896, 0.07902251, 0.10807501, -0.03224743, -0.043970544, -0.16933633, 0.17736852, -0.070511855, -0.05022209, -0.07386243, -0.112985775, 0.037354067, 0.17869656, -0.12781285, -0.14668964, 0.047543555, 0.15830804, -0.020168437, 0.059065793, -0.18886697, -0.11145837, 0.13298942, -0.041717943, -0.064476445, -0.071217746, -0.1166468, -0.14010331, -0.010882211, -0.11007769, -0.036130667, -0.13755487, -0.017406275, 0.058061484, 0.027187908, -0.20267363, -0.09308487, 0.03915896, 0.04772596, -0.05349837, -0.039648335, 0.033592604, 0.027080657, -0.027170205, -0.13397002, 0.027088718, 0.22908297, -0.092185214, -0.059360884, -0.10296164, -0.05516008, 0.016753742, 0.032102395, 7.6583674e-05, -0.102582075, -0.08226696, -0.093074225, -0.093784265, 0.045307968, 0.035803184, -0.062405, -0.056736887, -0.056454353, -0.11271569, -0.06769194, 0.11358158, 0.008799438, 0.016416479, -0.04993941, -0.023612453, -0.096018486, 0.03433278, 0.1562623, 0.030351516, -0.022632463, 0.0065273293, -0.0507316, 0.18300156, 0.22958595, -0.033605188, -0.21988702, 0.082744315, 0.08345129, 0.14283164, -0.14865483, -0.19687292, -0.06482254, 0.028758522, -0.075085044, -0.3913723, 0.008692848, 0.17359422, -0.07648152, -0.03332887, -0.20351972, -0.02614861, -0.3329342, -0.023713687, -0.060012855, 0.03756399, -0.1714475, -0.031133343, 0.031009827, -0.13065948, 0.050755177, 0.08098469, -0.030854413, 0.13731083, -0.016516002, -0.18621205, 0.015326726, -0.039301723, 0.009376796, 0.025980772, -0.07861983, -0.044216923, -0.10663936, 0.08860292, 0.09097061, 0.23777379, -0.121217236, 0.010993641, 0.10444575, 0.11954907, -0.16014339, 0.050045982, 0.12224135, 0.06653131, 0.08145456, -0.23416838, -0.28598905, -0.010956106, 0.23138012, 0.034972113, -0.11280692, -0.048478547, -0.0015713025, 0.04533469, 0.05152167, -0.099442974, 0.13579468, 0.112029426, 0.056889873, -0.28612918, -0.21524456, 0.053082947, -0.10146732, 0.09491607, 0.033541825, 0.21921998, 0.05270445, -0.24566457, 0.08476917, 0.051176075, -0.038943496, -0.062038407, -0.051555526, -0.14506944, 0.030969536, -0.21969798, 0.06519274, -0.080522716, -0.077536106, -0.1686674, -0.3316778, 0.080633014, -0.027995348, -0.1424354, -0.16936257, -0.16145422, 0.055248752, -0.4175636, -0.1889396, -0.091361195, -0.08120375, -0.1902631, -0.002049435, -0.07898157, -0.023394087, -0.0009676131, 0.061035372, -0.025058923, -0.026619155, -0.008783683, 0.07603646, 0.09298133, -0.24275613, 0.04006344, 0.039663713, 0.108432434, 0.047459032, -0.06785925, 0.033381283, 0.018752106, -0.038482066, -0.13142687, -0.12169736, 0.13798352, -0.16441476, -0.046165925, 0.0501854, -0.040366787, -0.040698033, -0.029604279, 0.050956372, -0.18193372, 0.022937404, 0.06184116, 0.024115998, -0.08643799, 0.01461335, -0.0634175, -0.0012025207, 0.0363347, -0.06887506, 0.07002991, 0.043650743, 0.1904378, -0.01422708, -0.03271095, -0.18538879, 0.012864696, 0.064228475, 0.07796054, -0.12933446, -0.025866764, -0.02186195, 0.08757033, 0.04309973, -0.13819012, 0.033048812, -0.1972233, 0.080490425, 0.080165796, -0.09963196, -0.25152907, 0.039324597, 0.12951176, -0.13188139, -0.40573743, -0.018705368, -0.058104414, 0.006071691, -0.17351879, -0.13573334, 0.057237584, 0.05602408, 0.16286801, 0.1355559, 0.122390665, 0.0067993724, 0.14120029, 0.019157162, -0.016831985, -0.11612213, -0.093259305, 0.099842265, -0.098648965, -0.09180216, -0.21101306, -0.10795579, -0.03153057, 0.10175073, 0.15479657, 0.21938325, 0.10262502, -0.043631665, -0.11129568, -0.012264686, 0.107550174, 0.044931825, 0.076051936, -0.028351361, 0.07490237, 0.15016983, 0.16464038, -0.097627066, 0.0042473874, 0.096963294, 0.07190468, -0.06852908, -0.31103182, 0.1006376, 0.01136254, -0.045184653, -0.15812275, -0.12458606, -0.15813318, 0.085836194, 0.0826201, -0.031019446, 0.083350465, 0.051906504, -0.0058945776, 0.021302603, 0.09170046, 0.0921597, 0.180413, 0.20977907, 0.16062371, 0.04236387, -0.13251723, -0.09509788, 0.03884365, -0.11271892, 0.03876012, -0.15044737, -0.034587238, 0.06921747, -0.03406409, 0.06823689, 0.1580288, 0.021097105, 0.24399062, -0.0069925836, -0.122958384, -0.030683467, 0.062796876, -0.025743624, 0.046028487, 0.17165957, -0.060133997, -0.119412184, -0.1054744, -0.15937054, -0.017198455, -0.030986028, -0.14018705, -0.085811034, -0.06956022, -0.02371204, 0.03598075, 0.08889537, -0.060758285, 0.0790067, 0.043276705, -0.0070873983, -0.038611054, 0.059576202, 0.10768665, 0.10759028, 0.10885024, -0.02335716, 0.07401585, 0.031287096, 0.026243767, -0.00039568913, -0.034874436, 0.08661392, 0.03611016, -0.07814569, -0.0384898, 0.09148536, 0.28738463, 0.06454747, -0.028814813, 0.13674551, -0.053204663, -0.14293389, 0.04833974, 0.02508114, 0.08457684, -0.15448764, -0.046680417, 0.08590047, 0.04769586, -0.017124083, -0.073504105, -0.06461249, -0.099967204, -0.10087548, -0.019148668, 0.0625722, 0.06049132, 0.100329824, 0.017329864, 0.1502211, 0.062148914, -0.035600312, -0.053457268, 0.12839662, -0.022837045, -0.016423367, -0.21509135, -0.06286536, 0.097379245, -0.12875095, -0.15040064, -0.062066387, -0.010363757, -0.061699737, -0.0012980402, 0.013219953, 0.1041668, 0.107077025, -0.013355414, 0.06409676, 0.09551635, 0.111599386, 0.03767393, -0.11255119, -0.027762942, 0.08010306, 0.29356456, 0.045476656, 0.026307007, 0.08446552, 0.050166976, -0.035194673, -0.11933225, -0.03702574, -0.026531283, -0.00021935688, 0.04727854, -0.015497563, -0.083481304, -0.07485706, -0.08757765, -0.10412188, 0.034558676, 0.193646, -0.06568634, -0.06171444, 0.0039903917, -0.0014774846, 0.018541593, -0.14565559, -0.09621232, -0.05283208, -0.12787926, 0.020223059, 0.005340104, 0.007916527, 0.082247615, 0.047146138, 0.18028797, 0.034798052, -0.056475583, -0.0933721, 0.022695908, 0.045277607, 0.06895761, -0.03933356, -0.033144634, 0.03531154, 0.09166378, 0.10445598, -0.054337215, 0.067264624, -0.014725701, 0.054173797, 0.017454315, 0.014420566, -0.2286051, -0.15485981, 0.043450657, -0.047371406, -0.0640441, 0.0072032465, 0.055344034, -0.016901774, -0.038647063, 0.06464257, -0.028206086, -0.014881341, 0.024781872, 0.014358655, 0.03332478, 0.0040324694, 0.057146683, -0.087732576, -0.05264769, -0.056281287, 0.064135924, -0.024006354, -0.046493653, 0.027839527, 0.10387547, 0.030712023, -0.072779, 0.14822294, 0.05006312, -0.085441686, 0.11370786, 0.11892121, 0.06378107, -0.019671438, 0.01734336, 0.12463948, 0.04695181, -0.052953426, 0.008682192, 0.081500836, 0.11499042, 0.14244336, -0.14412019, 0.05760713, -0.10526662, -0.06269178, -0.04359425, -0.09202855, 0.027663585, -0.025465934, 0.006082477, 0.16976225, -0.11677627, -0.0815458, 0.06785695, 0.14588575, -0.046240374, 0.1542071, 0.2118575, 0.07083045, -0.10160173, 0.010779617, 0.08204196, 0.011135384, -0.037599772, -0.021180717, -0.010562503, -0.029510345, -0.016266625, -0.00050665735, -0.050805222, -0.09313119, -0.0049755233, 0.10188456, -0.028892003, -0.018459719, -0.11557976, 0.26405174, 0.10540835, -0.02838923, 0.11468179, 0.108098045, -0.023641553, -0.014251041, -0.095041424, -0.015534046, 0.027594445, -0.24907352, -0.20137993, 0.16421348, 0.115514, 0.21588567, -0.013064607, -0.077053204, 0.029813023, 0.077852845, -0.010658082, -0.12925585, 0.13099726, 0.15518256, -0.0015690279, -0.0064224745, 0.118148424, 0.06114217, 0.054592147, -0.026497442, -0.04086208, 0.006208647, -0.008799807, -0.06346093, 0.13457924, 0.06916266, 0.07952841, 0.060433142, 0.048437007, -0.047992077, -0.042196896, 0.040261768, -0.12547567, -0.04222338, 0.05808268, 0.07762502, -0.2832014, -0.17581002, -0.061205182, 0.13376969, 0.020427613, -0.267272, -0.2635315, -0.02829783, 0.04571983, -0.10771506, 0.065282606, -0.017341524, 0.02188558, -0.08045985, -0.042202655, 0.021540377, -0.13701245, 0.010947634, -0.013317835, -0.00078807434, -0.032093585, 0.047787655, -0.06409001, 0.040996473, 0.110539064, -0.077196516, -0.0477084, 0.047258038, 0.076927535, 0.14063254, -0.039676618, 0.08778692, 0.19234231, -0.09284662, 0.02604034, 0.11019769, -0.0076800394, -0.0635822, -0.006065804, -0.018684153, -0.13573085, -0.019791476, -0.06956191, 0.041971978, 0.01271075, 0.1388565, -0.02993294, 0.087977216, 0.0006526104, -0.16113867, -0.15551509, -0.017716149, 0.0291923, -0.0148280645, -0.007981447, 0.03560945, 0.060546745, 0.097612016, 0.1195632, 0.07148047, 0.13298303, -0.106827684, 0.008521449, 0.0059286356, 0.10658388, 0.077998236, 0.03402959, -0.007386187, 0.022740893, -0.07531626, -0.0062458655, 0.018500343, -0.16822532, 0.013748984, -0.09580271, 0.10052593, 0.031000102, -0.10159756, -0.19452277, -0.12711935, -0.056494385, -0.15430705, -0.100261316, -0.12571217, -0.042910695, 0.100738294, 0.08464553, 0.06945824, -0.109356776, -0.06636163, 0.052106302, -0.04221457, 0.036055684, 0.017155483, -0.022129787, 0.10345806, 0.2369816, 0.017183946, 0.03555583, -0.02956146, -0.027212152, 0.101105556, -0.042938363, -0.114005476, -0.013754001, 0.17176454, -0.034345243, -0.046988986, -0.05702585, -0.029638672, 0.09746148, -0.018241594, -0.07528994, -0.07617485, -0.1084113, 0.040002815, 0.021586914, -0.029043546, -0.19752982, -0.042419758, 0.051826425, 0.26301667, 0.25145108, 0.076828204, -0.08088772, 0.08536923, 0.0036655343, -0.16537789, 0.04043882, -0.094806984, 0.13431716, 0.09049942, 0.078435525, -0.021489998, 0.1451211, -0.015113546, 0.08021043, -0.019830799, 0.0019489067, -0.05182249, -0.045402374, -0.09067157, -0.017183866, 0.07821982, 0.03318946, 0.06870789, -0.0037638089, -0.15431017, -0.2448804, -0.17824525, -0.03942012, -0.13155217, -0.14565545, -0.026619496, -0.15776385, 0.10665011, -0.019737175, 0.12489118, 0.06569484, -0.022933898, 0.08569131, -0.034514207, 0.03602171, -0.032713015, 0.085810795, 0.0926713, 0.021304073, -0.021606104, -0.09005576, 0.02126214, -0.12919599, -0.009961331, 0.16071296, 0.29342195, 0.12248675, 0.008072885, 0.015925625, 0.048632648, -0.0797198, -0.09653742, 0.048537992, -0.022339169, -0.04965653, -0.06284243, 0.0028169502, 0.009559654, -0.037942823, 0.037971925, 0.0009778353, -0.0798322, -0.021318702, -0.030118234, 0.062120702, -0.018855955, 0.035171572, 0.18255115, 0.15963371, 0.008545807, -0.09065872, -0.02491304, -0.030168304, -0.105913006, -0.20064482, -0.16235787, 0.004695872, -0.07389959, -0.08150196, -0.015876742, -0.045199413, 0.10814046, 0.15822254, 0.14207135, 0.06777243, -0.07187019, -0.10896664, 0.038656447, -0.0669442, -0.002052413, -0.3157348, -0.25070697, -0.0469291, -0.10938061, -0.13195331, 0.0368848, 0.18087322, 0.008152906, 0.17520063, -0.093477815, 0.004191371, -0.06420796, -0.09316994, 0.0510906, -0.048707105, 0.022250675, 0.02561177, 0.17181168, -0.12438076, 0.037654996, 0.026522484, 0.008438017, -0.0019309588, -0.016790673, -0.08153949, -0.0912877, 0.08667412, 0.06389311, -0.102642246, -0.33107927, -0.14732148, -0.04961787, -0.06817331, -0.18636511, -0.007167464, -0.016612137, -0.102746405, -0.11677873, -0.030307408, -0.0656248, 0.081229664, 0.012836603, 0.123173796, 0.05105924, 0.054042034, 0.16790795, 0.04407583, 0.0030097899, 0.04151299, 0.03347794, 0.055980455, -0.063451394, -0.020379944, 0.07915285, -0.08678014, -0.19113316, -0.077451296, 0.12729497, -0.1835926, -0.09883638, -0.15604116, 0.028199565, -0.2751961, -0.18254296, -0.21312581, -0.1610763, -0.014412831, 0.07892475, 0.030233532, 0.06473815, 0.09752721, 0.008810528, 0.050319944, 0.08357777, 0.07502881, 0.13703455, 0.11787465, -0.1073127, -0.03253975, -0.0109781595, -0.09164457, -0.119164415, 0.11679457, -0.03874029, 0.020988729, -0.16775067, -0.060537025, -0.17525119, -0.061316356, 0.089409, 0.014102419, 0.0750507, -0.0305373, 0.14954391, 0.12418647, -0.017260486, -0.16846283, 0.020814348, -0.107383505, 0.009076434, -0.026494427, 0.0075151096, 0.066919886, -0.02544004, 0.09729737, 0.021522237, -0.017082801, -0.05871915, 0.08061005, 0.014365955, 0.13877875, -0.019255312, 0.11005823, 0.07228278, 0.060027692, -0.028339766, 0.05371172, 0.056265943, -0.10218312, -0.059076183, 0.06056847, 0.039787523, -0.09780095, -0.062273026, 0.019834822, -0.079556, -0.006670031, -0.065173596, -0.15110826, -0.0714705, -0.04442658, -0.012422445, -0.010149189, 0.063074335, 0.032444194, 0.1140889, 0.015729906, 0.06555224, -0.0045543197, 0.08919869, 0.07057561, -0.020198915, 0.030305838, 0.0046587638, 0.006568779, 0.031926718, -0.06460157, -0.04105558, -0.070619784, -0.042056292, 0.049425352, -0.112094, 0.08856705, -0.08171415, -0.106145635, -0.17658335, -0.17373149, -0.064509906, -0.24986148, -0.26407248, -0.031849205, -0.18136583, 0.115545474, 0.013879927, 0.101834856, 0.20221539, 0.09028267, 0.041357502, -0.03389889, 0.022674475, -0.0706459, -0.0072115758, -0.045578223, 0.03563107, -0.19488688, -0.0899191, -0.1595398, 0.11628448, 0.22073503, 0.18080023, 0.16872208, 0.21668638, -0.08595064, 0.06383908, -0.032166786, -0.0034642662, -0.03874599, 0.14563505, 0.09078525, -0.07310888, -0.061265625, -0.06656158, -0.045335, 0.049919445, -0.23145664, 0.025163786, -0.025047844, 0.019042064, -0.015911909, -0.062008243, 0.036499277, -0.008743297, 0.014650279, -0.0804768, -0.09238857, 0.12086208, 0.11361941, 0.035024613, 0.085168324, -0.028722055, 0.047324598, -0.12150729, 0.10856131, 0.09240925, 0.018110732, -0.048358083, 0.008258633, -0.0031101392, -0.031461235, -0.017558228, 0.039745994, 0.028215485, -0.14343867, -0.017792802, -0.062144022, -0.019225154, -0.052540917, 0.1408932, -0.11829502, -0.17954671, -0.18925193, -0.02906765, -0.084659345, -0.08364641, -0.04129695, -0.104055524, -0.12372575, 0.028525652, 0.043106683, 0.011772635, 0.08939455, 0.019916954, 0.077536926, -0.004525178, 0.016959619, 0.06851954, -0.030129457, 0.012662482, 0.076684594, 0.04641309, -0.050543696, 0.057362426, -0.06794987, -0.035881437, -0.00834292, 0.024803538, 0.12169636, 0.18663949, 0.074796334, 0.045126002, 0.10681084, 0.1453014, 0.049555484, -0.11420562, -0.04062624, 0.0772039, 0.21030453, 0.048142772, 0.13081485, -0.06989552, 0.030631192, -0.15094402, -0.08503734, -0.010744148, -0.100743264, -0.2302228, -0.23386748, 0.05562259, 0.07650914, -0.11437756, -0.06647625, 0.054744925, -0.014868248, 0.12778896, -0.079670854, 0.07212168, 0.017380912, 0.07357055, -0.111771084, -0.14212267, -0.06928558, -0.00018777754, 0.0062373704, -0.027944364, -0.12602793, -0.026449492, 0.04652161, 0.06530313, -0.06043798, 0.18572913, -0.0414228, -0.101104416, -0.08232633, 0.14489152, 0.20286505, -0.008090978, 0.09870263, -0.011380532, 0.06913864, -0.18841343, -0.07197023, 0.06253599, 0.08619406, 0.14347295, -0.07565357, 0.065346785, 0.16371058, -0.04096328, 0.042374022, 0.09552942, -0.041946404, 0.08728467, -0.030692682, -0.20155436, -0.10682653, 0.010164506, -0.109277315, 0.044810735, -0.013008001, -0.042968433, -0.0205449, -0.124691576, 0.036724493, -0.029134182, -0.06572074, 0.024791375, -0.06697423, 0.09030773, -0.08868927, -0.09363551, 0.036360003, -0.12542522, 0.031959075, -0.029806035, -0.091535494, 0.012326748, -0.033575367, 0.107964315, -0.050319664, 0.0036166953, -0.026568921, -0.08200162, -0.07645926, -0.03316987, -0.057098612, 0.19999713, 0.16755614, -0.11352189, 0.02385529, -0.051556222, 0.01680869, 0.09078089, -0.016323699, 0.12424918, -0.13107581, -0.03445142, -0.02582216, -0.06513218, 0.10440154, -0.18177734, 0.12492991, 0.012045663, -0.014814713, 0.05620848, -0.08059789, 0.09287706, 0.04697294, 0.07417202, 0.15069199, 0.09545783, 0.049549058, 0.0762778, 0.06999655, 0.013504683, -0.14253375, -0.18571882, -0.07517588, -0.2800943, 0.026795056, 0.011070306, -0.09341509, 0.061797068, 0.12619431, 0.07319813, 0.099871404, 0.050437246, -0.051548157, 0.0854639, -0.0011233416, -0.06285698, -0.08104309, -0.31470436, -0.02196933, -0.06115227, -0.08851722, 0.00048845203, 0.1363532, 0.10906919, 0.05857601, 0.03154017, 0.092673965, 0.082197554, -0.06449564, 0.05085892, -0.02382614, 0.022712609, -0.01388767, 0.0025468478, -0.109271854, -0.029100576, 0.08392814, 0.1104174, -0.094413795, 0.059664845, -0.061280545, -0.053178385, 0.09775308, -0.0370973, -0.028122919, -0.14760818, -0.19263633, -0.0662669, 0.0062165027, -0.017700529, 0.033303764, -0.1305845, -0.0275191, 0.05416347, -0.116659574, -0.047728125, -0.06332888, -0.021099085, -0.12569273, -0.102414116, 0.16252771, 0.102986746, 0.021415971, -0.043079954, -0.06420058, 0.03960524, 0.08913466, -0.014575277, -0.03226347, -0.051613826, -0.04645413, -0.28293872, -0.15489928, 0.038216583, -0.038594816, -0.038761288, -0.12768118, -0.07947035, -0.0910238, -0.1901956, -0.08503561, 0.061871674, -0.052188784, 0.1382602, -0.064243294, -0.015630005, 0.14588967, 0.026580172, -0.02505183, -0.09781627, -0.00038517467, 0.018196216, -0.01975799, -0.052835323, -0.07282388, -0.06976106, 0.09396745, 0.13727835, 0.045403615, 0.054499745, 0.023918908, -0.18153727, -0.083005995, -0.078726284, -0.062463626, 0.05308536, 0.16995665, 0.074311726, 0.05509826, 0.05728151, -0.06525508, 0.11618659, -0.12162215, 0.010810347, -0.07500622, 0.002660047, 0.085557334, -0.044371087, 0.18093695, -0.16967453, -0.12137178, -0.04162571, 0.11305032, 0.0058299433, -0.059273325, -0.031195153, 0.13909735, 0.16880178, 0.13275127, 0.10817905, -0.05365778, 0.0287827, 0.046064425, -0.029652348, 0.028684573, -0.1332477, -0.15708283, 0.042862903, 0.0034172772, 0.00929213, 0.038731165, 0.07055793, -0.012620176, 0.047377873, -0.09196617, -0.07937955, 0.016256135, 0.111698076, 0.07547195, 0.098790295, 0.116231784, -0.03910559, -0.16577366, -0.09275886, -0.022744777, 0.036936995, -0.0074415198, -0.1398648, 0.005272245, -0.065068364, -0.002862399, 0.009918983, -0.06267172, 0.2583359, -0.006018432, -0.030460251, 0.10000107, 0.09214285, 0.1114031, 0.004067983, 0.017713035, 0.0008785621, 0.045950886, 0.12654164, -0.13963701, -0.13014305, -0.104422376, 0.00032803143, 0.25238094, 0.025224982, 0.016342906, 0.068502955, 0.09601835, 0.026618836, 0.071862, -0.0010548618, -0.09828459, -0.016220916, 0.1834859, 0.020916516, -0.04651892, -0.26447287, -0.17986503, 0.23653089, -0.04555192, 0.060746733, 0.070334, 0.12641491, 0.0947505, -0.08749311, -0.106136225, 0.008428794, 0.14241551, 0.2813759, 0.08940708, -0.012081225, -0.012609227, 0.024658278, 0.08885195, -0.12728181, -0.11455973, -0.08855791, 0.03373967, -0.04927268, -0.07087015, -0.015962828, -0.11388555, 0.07363264, -0.00046584275, -0.054198038, -0.06262308, 0.016962122, 0.14947113, 0.01099896, 0.042440757, 0.007875668, 0.07065338, 0.10557445, 0.0905505, 0.018788584, -0.09560298, -0.012617268, 0.14717562, -0.073737465, -0.07700151, -0.045992866, -0.04327651, 0.119801804, 0.05889154, 0.023273025, 0.04045129, -0.04368229, -0.07267573, 0.064277895, -0.035279892, 0.05384112, 0.016223652, 0.043391045, -0.095968015, -0.031695496, -0.089769244, 0.011913522, -0.041252386, 0.08574424, 0.036538824, 0.042592462, 0.058910582, -0.089038, -0.0993224, -0.051247615, -0.09685419, 0.09171993, -0.09137973, 0.07497677, -0.04325573, -0.003162848, 0.0324399, 0.042860035, -0.08826953, -0.102715746, 0.06925423, 0.08114289, -0.078064576, 0.10946456, 0.020660434, 0.113016084, -0.027689505, -0.30925182, -0.08755708, -0.04129423, -0.01855677, -0.12496689, 0.0074295406, -0.1979622, 0.086268656, -0.04517309, -0.26535365, -0.123761624, -0.13921377, 0.13603415, 0.16985367, -0.038200174, -0.17603211, -0.025278285, 0.23653153, 0.07003505, 0.059539076, 0.024593903, -0.123129286, 0.1237046, -0.2382561, -0.029097334, -0.2288275, 0.011433116, 0.08471171, 0.016634502, -0.11822075, 0.15972306, 0.11660085, 0.23961689, 0.0403133, -0.33406526, -0.09311037, -0.08829059, 0.10913805, -0.0431587, -0.04074003, -0.0753237, -0.09563219, -0.031563453, -0.053242587, -0.082026295, -0.17683583, 0.0017162963, 0.09694021, 0.08690045, 0.041178018, -0.14167061, 0.05720546, -0.18236472, -0.013282417, -0.06577491, 0.0060580815, -0.016288677, -0.0037494414, -0.012774113, -0.06824047, -0.076957345, 0.0537733, 0.21753137, 0.14553997, 0.19775708, -0.1262995, 0.11478264, 0.033210706, 0.10650761, 0.19604015, -0.025960507, 0.04169534, -0.0006032691, 0.095357604, 0.05219105, -0.034603465, 0.03416305, -0.04377886, -0.10002984, 0.014382915, 0.09836178, 0.09517469, 0.025849432, 0.15183182, 0.10795862, 0.15065363, -0.022225907, -0.13789727, -0.15010926, -0.12776588, -0.33359382, 0.02567319, -0.02388324, 0.043973662, 0.08162716, 0.07447671, -0.021136845, -0.1171527, 0.13440508, -0.08756699, -0.09577406, -0.045140106, -0.11161511, 0.050690703, -0.1462071, -0.15301865, -0.04241368, -0.04538409, -0.114971116, -0.07812944, -0.0100371735, -0.063656405, 0.13638106, 0.12531805, -0.119795375, 0.23172, 0.06013509, 0.096126564, -0.0007511201, -0.026301265, -0.017789677, -0.1387841, 0.07445755, 0.0074328617, -0.030425029, -0.11619777, 0.16527729, 0.17215058, 0.2150244, 0.06478651, 0.09177593, 0.15871122, -0.031440828, 0.00063334825, -0.17360276, 0.13160466, 0.12183432, -0.14018607, -0.11462473, -0.2533773, -0.5246928, -0.13223328, 0.05723355, -0.26376218, 0.20489326, 0.019993966, 0.052444045, 0.06014522, 0.077092834, -0.012416464, -0.09278953, 0.1516651, 0.052467585, -0.0074017965, -0.019373419, -0.17646797, 0.069188304, -0.008580058, -0.01233855, 0.0030623942, -0.20579822, 0.23275603, 0.07301792, 0.10737709, -0.05664067, -0.32325393, 0.13729386, 0.15778282, 0.00094420754, -0.074188426, -0.096130155, 0.0054394766, -0.010605282, 0.01945972, 0.2629413, 0.18046103, 0.07437233, 0.044468623, -0.16162597, -0.103306666, -0.19394542, 0.1906856, 0.03704619, 0.115345046, 0.18298388, 0.08085439, 0.04559159, -0.10385788, -0.14724593, -0.12131275, -0.0665072, -0.099296264, -0.3272721, 0.03268651, -0.08404274, -0.025390374, 0.04676889, 0.10897053, 0.017473262, 0.1327894, 0.07879279, 0.092114925, 0.08291038, -0.15395547, 0.013428602, 0.004830367, 0.032339435, -0.056596283, -0.035181202, 0.012152354, 0.087794095, -0.15573443, -0.10344322, -0.13963509, -0.052205484, 0.06586761, -0.12758824, -0.07780652, 0.0074882745, 0.06494152, 0.09565724, -0.13068017, 0.17674066, 0.035512723, -0.21661212, -0.27599615, 0.2529589, 0.12856406, -0.053395122, -0.0747671, -0.09081263, 0.11088397, 0.1285979, -0.15941407, -0.17688775, -0.10137866, 0.06678103, -0.053854726, 0.01612909, -0.0417252, 0.0235546, 0.03179044, 0.14788274, 0.0534918, 0.06959482, 0.13297541, -0.06675596, -0.2611532, -0.04337304, 0.027784374, -0.13409865, -0.19789894, -0.26258466, 0.025574366, 0.023314746, -0.10034701, -0.088067934, -0.06737084, -0.07964037, -0.02719765, -0.1121539, 0.02993023, 0.041831646, 0.031032838, -0.23456728, -0.27156782, -0.014606059, -0.02900588, -0.025761643, 0.10250608, 0.14549156, -0.10539183, -0.037191477, 0.09643547, -0.1031281, -0.088380985, 0.21377091, 0.27418962, 0.06330883, -0.05701143, 0.0064695994, 0.02657177, 0.013150406, -0.08780957, -0.09721006, 0.048927363, 0.08577834, -0.055156514, -0.30027783, -0.35437027, -0.26030007, 0.20662776, 0.14268164, 0.120764986, -0.030746393, -0.10501395, -0.025273843, -0.000905749, -0.12329426, -0.07021197, -0.06513501, -0.2184837, -0.061759416, -0.132138, -0.081343114, -0.1082356, -0.033528, 0.01793415, -0.019436521, 0.001020644, 0.10984592, 0.024472399, -0.18492232, -0.18251085, -0.17957036, -0.2683741, 0.053743277, 0.12449498, 0.13716523, -0.0018079849, 0.031850886, -0.061620906, 0.09055359, 0.07320855, 0.096514225, -0.095475666, -0.39022437, -0.027024252, 0.014114373, 0.005411753, -0.16234289, -0.062065817, 0.25343037, 0.039948028, 0.0029523731, -0.3869928, 0.01100465, 0.20129643, 0.16564263, 0.052352227, -0.2243263, -0.014071494, -0.10482474, -0.060486592, 0.1206018, 0.11522366, -0.05552497, -0.10446598, 0.031990077, 0.012593782, -0.1605477, -0.06789402, -0.043300673, 0.014181728, 0.021915786, -0.15641162, -0.05413949, -0.12253373, 0.0016243545, -0.1830911, -0.101680264, 0.103502505, 0.035614025, 0.0021917587, -0.17189673, -0.20306791, 0.16318169, 0.01922338, 0.096318774, -0.09858566, -0.17818277, 0.0037039742, 0.006807441, 0.14565161, 0.091074854, -0.043700736, -0.17824113, -0.053168472, -0.030242788, 0.0070076114, 0.0029878952, -0.114703774, 0.18972366, 0.057157364, -0.01868038, 0.03997028, 0.14502986, -0.019362982, -0.039368905, -0.18970774, 0.0016540271, 0.05837538, 0.057483695, -0.01832768, 0.02698821, -0.08966913, 0.07107581, 0.08487801, 0.018393591, -0.064580254, -0.32023206, -0.04831271, -0.010120822, 0.003935678, -0.18108672, -0.14458032, 0.0016965045, 0.10657509, 0.009446415, 0.096082285, 0.11163021, -0.0045258035, -0.12251011, -0.05218227, 0.086500056, 0.15823537, 0.053033903, 0.107124604, -0.031694394, 0.06344899, 0.028792078, -0.027872844, -0.0101091685, 0.00996048, -0.0032739302, -0.07545032, 0.14789341, -0.1409299, 0.053667057, -0.16082521, -0.051369715, 0.07360891, 0.07806438, -0.10603184, -0.09751327, -0.12689325, 0.052433558, 0.18105368, 0.105855934, -0.16933742, 0.0686014, 0.013871449, 0.2495878, 0.4879518, 0.20038095, 0.012191018, -0.008888128, -0.12817088, -0.11364251, 0.16927704, 0.016205933, 0.02341876, -0.11963225, -0.057128858, -0.06102455, 0.09298931, 0.16449209, 0.027113557, -0.026712842, -0.0005140017, 0.02123618, 0.07346548, 0.13811833, 0.009755828, 0.1112046, 0.050252188, 0.11016163, -0.046812106, -0.14509682, -0.20181046, -0.10191805, -0.100614645, -0.022979014, -0.20627655, -0.04044384, -0.07323587, 0.03460575, 0.16186216, 0.17018619, 0.12834653, 0.053199627, -0.02731377, 0.042705134, 0.08495904, 0.073040925, 0.11674074, 0.04771329, -0.010783408, -0.22233205, -0.1933083, 0.059289895, 0.063652925, 0.0017750537, 0.12456048, 0.24933368, 0.22680876, -0.06549147, -0.05723088, -0.014656588, 0.13927831, -0.056233235, 0.003663131, 0.047428466, -0.008486856, -0.0293643, -0.15725161, 0.023883132, -0.07117314, 0.06541055, -0.20553641, -0.010572127, 0.09692727, 0.050025437, 0.06406442, -0.027291385, -0.06721303, 0.007161792, 0.18036008, 0.093411356, 0.044450752, -0.0069673965, 0.15673599, 0.08292794, -0.12979558, -0.122993566, -0.22143824, 0.08058844, 0.01648801, 0.118782416, -0.20171362, -0.056208424, 0.10595742, 0.19373842, 0.09529008, -0.4035738, -0.11363905, 0.10991619, -0.011625195, -0.05450774, 0.039215297, 0.08605337, -0.10140549, -0.123541124, -0.051500347, -0.021370092, 0.15782452, -0.12295749, 0.0681831, 0.063379005, 0.07916117, 0.054371618, -0.113546275, 0.06529647, -0.0642068, 0.07453659, -0.103087656, -0.026634999, 0.052602343, 0.16331139, -0.06952218, -0.06054427, 0.05528245, 0.09309907, -0.023105348, -0.094597846, -0.0050376696, 0.1330384, -0.16321371, -0.19215538, -0.20001692, -0.21582168, 0.03656332, -0.20558532, -0.055709902, -0.18390799, -0.10286464, -0.0049933107, 0.067219086, 0.05582747, 0.2021021, 0.053713992, 0.06740007, 0.10326573, 0.0585487, 0.06884327, 0.047044165, 0.14837682, 0.01789226, -0.15980959, -0.17822377, 0.07257531, -0.014717917, -0.03295094, -0.30842227, -0.17460796, -0.18861432, 0.0870206, -0.049538516, -0.05450757, -0.19394797, -0.080939695, -0.034001634, 0.0681803, -0.03276414, -0.04384392, 0.051624272, 0.030170316, 0.19507048, 0.10498354, 0.08351342, 0.07018767, 0.08128742, 0.06856044, 0.05032395, -0.043744486, 0.07119712, -0.12770604, -0.112155855, -0.04154387, -0.09781521, -0.10757175, 0.052898347, 0.09196545, 0.019645343, -0.0868771, -0.10162916, 0.015027803, 0.008835824, 0.030022489, -0.14850481, 0.017805781, 0.087449394, 0.053037774, -0.023526449, -0.058484517, -0.0032303943, 0.24244392, 0.053577334, -0.022383312, 0.16804135, 0.16067974, -0.067555346, -0.027879221, -0.044373553, 0.10960105, 0.083599284, -0.14979655, 0.14088349, -0.037641905, 0.18874495, 0.091935545, -0.04254967, 0.036298018, -0.06841107, 0.12663063, -0.024148704, -0.013747617, 0.039876234, -0.104568936, -0.085453704, -0.111800335, -0.054143105, 0.17197375, 0.013753708, -0.15387383, -0.1754224, -0.033587, -0.1204487, -0.111018315, -0.06804962, -0.043180734, 0.012025056, 0.06860596, -0.041031804, -0.059213575, -0.020078057, 0.07418932, 0.00063711504, -0.0056783375, 0.04703974, -0.030163718, 0.07548927, -0.035930537, -0.1024172, -0.1386442, -0.013885268, 0.14255875, 0.17291573, 0.008988568, -0.08129451, 0.054791797, -0.054951478, 0.04447461, 0.010688697, -0.036041033, -0.12689792, -0.08896388, 0.064706, -0.08392891, -0.060231138, -0.320782, 0.07572362, 0.024216963, 0.07183968, 0.0006141016, -0.054435324, -0.051417556, 0.08445994, -0.07022143, 0.053562332, 0.061836228, -0.08746352, -0.04536832, -0.15625831, -0.0005996368, 0.046944488, 0.050793737, 0.19245498, 0.13181223, 0.094900966, 0.12937854, -0.14324526, -0.059763845, 0.02102825, 0.09213031, 0.039578333, -0.06044781, -0.10406333, -0.016403083, 0.14283423, -0.06341591, -0.18388702, -0.09015869, -0.12537494, 0.03956683, -0.123765744, 0.056533337, 0.20790344, 0.14083205, 0.06373445, -0.16673622, -0.089474335, 0.08822151, -0.031269517, 0.13187963, 0.067781016, 0.01826925, 0.08971925, -0.034813102, 0.0991086, -0.09176698, 0.048323452, 0.11006153, -0.07456058, -0.03054634, -0.03409941, -0.02221073, -0.035084937, -0.07299839, -0.013599198, 0.03577064, 0.103059545, 0.077919416, -0.08443762, 0.049993154, -0.034909364, 0.16343288, -0.14273627, -0.16105275, -0.10480367, -0.092537366, -0.29017866, -0.060250048, -0.058877658, -0.30882517, -0.2161836, 0.099849604, 0.14075418, 0.050368, 0.02904995, 0.03211423, 0.02925956, -0.008197961, 0.044647094, 0.14009286, 0.1763533, 0.09926985, 0.03652944, -0.11716117, -0.14813551, -0.03373509, -0.07891378, 0.12775731, 0.055701632, -0.07367737, 0.12481659, -0.11636129, -0.07040452, 0.0838305, 0.00022250725, 0.1516849, 0.027963452, -0.08071947, -0.082207575, -0.008304121, 0.16517815, -0.027390681, -0.0858856, -0.03625925, -0.084793545, 0.13532488, -0.049183305, -0.12764585, -0.14132175, 0.0046430705, 0.2746186, -0.014230782, -0.1318733, 0.08433029, 0.05669603, -0.10541104, 0.06836878, -0.20946826, 0.1434508, 0.14975515, -0.06334161, -0.020431103, 0.023858635, 0.084670775, 0.24220085, -0.019197207, -0.023399368, 0.027343133, 0.19350263, -0.22833334, 0.03147147, -0.07938997, 0.16284494, 0.17412819, -0.07271464, -0.036591653, 0.032062944, -0.24220471, -0.30143052, -0.0013100277, -0.04750499, 0.051771812, 0.1932069, 0.19570352, -0.0016331486, 0.0034753336, -0.0118800765, -0.062908694, 0.030512217, -0.03274506, -0.11370557, 0.078837976, -0.04818742, -0.0884038, -0.14872782, -0.15203144, 0.15394521, 0.19084261, -0.018908985, -0.055695754, -0.070644446, 0.02777701, 0.02724421, 0.11201403, 0.10620716, -0.017107101, 0.085226476, -0.02244045, 0.103215195, 0.09001819, 0.10413554, -0.09850388, -0.0036704915, -0.049683757, -0.08448757, 0.069352426, -0.009722726, 0.010409759, 0.059148896, 0.0065772105, 0.11218639, -0.09323523, -0.0821356, -0.059734583, -0.11367841, -0.09370751, 0.05372531, -0.033280026, -0.22659722, -0.38341412, -0.2393912, 0.07709093, 0.092571616, -0.1012034, -0.2618376, 0.11323853, 0.11877008, -0.11478006, 0.03805122, -0.032135617, 0.17623048, -0.05485321, 0.00038422985, 0.043882705, -0.09457198, 0.09506439, 0.11393344, 0.028154308, -0.012276414, 0.13922235, 0.26541758, 0.058247764, 0.07811851, 0.18172212, 0.016949328, -0.07042794, -0.079857975, 0.0389134, 0.16931401, 0.15703788, 0.005286951, 0.0022368755, -0.30773926, -0.12469557, 0.23213683, 0.046291586, 0.124289356, 0.06942785, 0.0054763183, -0.036081582, -0.014579824, -0.035474256, -0.035403173, 0.0371737, 0.16572367, 0.2159327, 0.02528336, -0.060595904, 0.020623058, -0.14200692, -0.17119841, 0.02210843, 0.00061282, 0.070521615, -0.024321487, -0.17834364, 0.09703418, -0.028363613, 0.17429136, -0.0015086054, 0.06449104, -0.15778056, -0.021791333, 0.0074646617, -0.08092982, -0.058119092, 0.1031912, 0.029432608, 0.038551822, -0.1271253, -0.034097366, 0.009430629, 0.07769178, 0.13460511, 0.06937662, -0.08823966, -0.01815206, 0.044682626, -0.07253949, 0.03759668, 0.07362426, 0.10371186, -0.031724814, 0.008175024, -0.07825725, -0.057094995, 0.060571656, 0.10839599, 0.008852581, 0.046522085, -0.012048735, -0.16823378, -0.05064302, 0.002332764, -0.018690234, 0.027478348, -0.016872948, 0.09853448, 0.1354617, 0.16562672, 0.06426557, 0.01620973, 0.017776847, -0.08792761, 0.06986205, 0.05877491, 0.017044296, 0.12338526, 0.027364865, 0.1617578, -0.011941149, 0.05049715, 0.22085547, 0.018998044, 0.047538504, -0.0051565235, 0.023272417, 0.08076889, 0.063445665, 0.13218176, 0.011799277, 0.0062307343, 0.026472522, 0.12714982, 0.11981429, 0.069699734, -0.18613516, -0.05633998, -0.033372503, 0.015729945, -0.11819993, 0.075128034, -0.08281366, -0.064226925, -0.07866003, 0.034273505, 0.018761858, 0.08965315, 0.115019634, -0.11668925, -0.013806226, 0.09564678, 0.061834592, -0.017502265, 0.10799165, 0.013555419, -0.17583634, -0.010828359, -0.16930808, -0.068318985, 0.012975491, 0.027821623, -0.04457837, 0.041094515, -0.15924267, -0.20413907, -0.03763068, 0.09302252, 0.1062762, -0.019467581, 0.048535816, -0.11134652, -0.08940169, 0.08900091, -0.01985034, 0.08457097, -0.18872543, -0.020504821, 0.07034547, -0.057418507, 0.039835222, 0.053903498, 0.07364902, 0.113531314, 0.0097764805, -0.03354623, -0.01005256, 0.029177751, -0.013836369, -0.20613109, -0.19369799, 0.017561378, -0.045954224, 0.14560853, -0.0339658, 0.13871405, -0.10135013, 0.1486365, 0.191832, 0.040603507, 0.17254817, 0.026811063, 0.19831288, 0.083598375, 0.024039362, 0.13669395, -0.14657095, 0.1113408, 0.18110013, 0.09708354, -0.07592786, -0.004470732, -0.115334995, 0.037411705, 0.07938574, 0.046997897, -0.2289085, -0.18037282, -0.06367234, -0.0013104059, -0.09365275, 0.031451035, -0.08809728, -0.03402751, -0.11436833, 0.014073482, -0.29284304, -0.07128888, 0.040376235, 0.0016045605, 0.04300061, -0.14347178, -0.21841227, -0.17118256, -0.22771953, -0.22885871, 0.09106308, 0.051299296, 0.046944138, -0.025929227, -0.13597797, 0.004507777, 0.046863716, 0.015474101, -0.010114793, 0.0076515293, -0.041132268, -0.23652942, -0.13741124, -0.07601306, -0.060231596, 0.053618032, -0.061221883, -0.0471801, -0.10973982, -0.109862365, -0.006779233, -0.089507364, -0.026461586, -0.12860967, -0.15138596, 0.0070084436, 0.14864825, 0.02226078, -0.054406516, -0.14249909, -0.016998796, -0.03156191, -0.041068602, 0.049845945, 0.11568371, -0.086739786, 0.022970239, -0.050380565, 0.046596166, 0.031408362, 0.02478361, -0.006761598, -0.067216605, -0.043366864, 0.04710333, -0.15158491, 0.074623704, 0.02584213, 0.028256267, -0.07184755, 0.020062001, -0.032360796, 0.04417447, 0.088762835, 0.008500648, -0.20063081, -0.049010377, 0.012332335, -0.18389462, -0.03907912, 0.00281301, -0.018047525, 0.007729859, -0.04602254, 0.13443495, -0.07280602, -0.050825927, -0.0039426275, -0.028937869, -0.028617479, 0.03923988, 0.04432194, -0.024030263, 0.08979264, -0.0983661, -0.085306466, -0.3346634, -0.27562648, 0.030795153, 0.09393021, 0.0238056, -0.25992256, -0.1512444, 0.03059576, 0.119056284, 0.1289364, 0.02283851, -0.023200488, -0.061156422, -0.11662504, 0.107678466, 0.17481512, 0.09799882, -0.034140766, -0.046146255, 0.02096501, 0.16507033, 0.11430391, 0.03818314, -0.12525581, -0.007931555, 0.016645856, 0.02094912, 0.0124387685, 0.038495243, 0.06636956, 0.17209463, 0.0840221, -0.021384155, -0.0036961944, -0.039285526, -0.07775715, 0.02813951, 0.017247325, -0.072800696, 0.049216617, -0.030634634, 0.0075402684, 0.044729143, 0.03231811, -0.06113209, 0.06741438, -0.008350499, -0.15680489, 0.031727027, 0.06440203, 0.28870854, 0.0014975417, -0.14062354, 0.076237366, 0.028692326, 0.11001694, -0.008534831, -0.13267578, -0.022498734, -0.3778391, 0.026001398, -0.06956632, -0.18723384, -0.07804207, -0.08097097, -0.00038243528, 0.025447555, 0.035269212, -0.042211585, -0.062036153, 0.043915905, -0.060386073, -0.01079188, -0.054713905, -0.11087728, -0.023447856, 0.100944094, -0.08767812, -0.3273981, 0.0026479193, -0.15478982, -0.080400065, 0.0391847, -0.06419193, 0.1081801, -0.0069244285, 0.16246463, 0.061469566, 0.033154182, 0.0058634738, -0.090398185, 0.049320586, 0.07031777, -0.09193244, -0.04762855, 0.03750427, 0.16951147, 0.05466962, -0.07987798, 0.057174895, 0.061145175, 0.07473911, -0.038043275, -0.03403888, 0.06521914, 0.1328396, -0.030388314, 0.094863795, 0.034571104, 0.058494523, 0.018339708, -0.043207917, -0.07466586, -0.0864958, -0.06357247, 0.014140991, -0.33949205, -0.056301396, -0.11422026, 0.11027463, -0.36094332, -0.21736206, -0.0071945474, 0.035121813, -0.04798631, -0.24482253, 0.089282796, 0.20249966, 0.22694975, -0.34148547, -0.1518584, 0.05092979, 0.19295044, 0.08946011, -0.49568227, -0.18864037, 0.012925745, 0.08718913, -0.02050101, -0.007890462, 0.26736268, 0.1633481, -0.056489497, -0.26399255, 0.2623436, 0.14906597, 0.14891413, 0.028877802, -0.021518815, 0.15076102, 0.06140896, 0.049989477, -0.11885091, -0.07778066, -0.015385061, 0.029458785, -0.034493282, 0.069141015, 0.13094023, 0.07023894, 0.025160108, 0.06509793, -0.021919705, 0.058518734, -0.03664864, -0.009720132, 0.021871326, 0.015369695, -0.07865394, 0.0321197, -0.09838866, -0.03432635, 0.04283852, 0.09897029, 0.2510874, 0.026762707, -0.08208031, -0.12907375, -0.11687597, -0.020772781, -0.057236545, -0.0068257046, -0.050531257, -0.073018596, -0.0433843, -0.008084859, 0.08138985, 0.032001194, 0.059143033, -0.0006495112, 0.015794223, 0.07402828, 0.12473521, 0.014777019, 0.04365306, 0.052796002, 0.119537465, 0.009993462, 0.024198955, 0.049846124, 0.042268094, 0.003056656, -0.03063033, 0.059767317, -0.19856529, -0.20938517, -0.22254007, -0.17278375, -0.30788007, -0.19584738, -0.31996512, -0.20269972, -0.004947145, 0.1385747, 0.082479335, 0.01541006, 0.043640092, 0.15468317, 0.08763542, -0.0038393585, -0.058000386, -0.09704992, -0.19565621, -0.16231398, 0.09913325, -0.0078293765, 0.06412995, -0.014909778, 0.03907248, -0.11777054, -0.139844, -0.00046249328, 0.036101695, -0.096784584, -0.36079663, -0.08148429, -0.038352676, -0.045663767, -0.024772452, -0.069336295, -0.16464116, -0.0020110856, 0.04113278, 0.13315612, 0.17780767, 0.12626776, 0.028602283, -0.0070860772, -0.15130581, 0.18004176, 0.07267876, 0.13726762, -0.10876892, 0.022293368, 0.14634614, 0.045809854, 0.12368983, -0.14316978, 0.07570403, 0.012753066, -0.03303114, -0.0010677268, 0.047725435, 0.09069576, 0.026083926, -0.18364215, 0.17122667, 0.098455414, 0.08951926, -0.023323042, -0.06492159, -0.017702064, -0.063828014, -0.18129258, 0.14933121, 0.050110728, 0.18926407, 0.14694619, 0.046934452, -0.121435955, -0.061916307, 0.06127054, 0.06773323, -0.08445725, -0.19003093, -0.106263176, 0.059065577, -0.015029916, -0.021598838, -0.28250667, -0.2692745, -0.13198681, 0.1461225, 0.0012851702, 0.14401346, -0.2622795, -0.09517667, 0.03772935, 0.0506374, -0.05775689, -0.17380904, -0.21844497, 0.07135126, 0.16988854, 0.070732675, -0.094846904, 0.021665564, -0.009784106, 0.08657018, 0.034668688, 0.00011008345, 0.11558817, -0.06243031, -0.16644445, -0.036269866, 0.05315134, 0.03004205, 0.04752854, -0.16184959, 0.09856849, 0.27398035, 0.044855945, 0.019068664, 0.060160395, 0.3411643, 0.068402015, 0.0457675, -0.09601004, 0.052602444, 0.3447586, 0.11128067, 0.05277179, -0.1885421, 0.17033878, 0.087116644, 0.063648105, 0.15994024, -0.004839904, 0.025264682, 0.03211287, -0.2106884, -0.022795219, -0.015452698, -0.072770715, 0.08309063, -0.021293014, 0.035573512, 0.102623716, -0.14567946, 0.048144452, 0.032664895, -0.03625879, -0.14901268, -0.050978377, 0.035048928, 0.043768685, -0.055122435, 0.00050326344, 0.050842933, -0.027719015, 0.06927551, 0.029294603, -0.069431104, 0.041375406, 0.0049881577, -0.024450682, 0.12613182, -0.03940635, -0.29249927, 0.1520358, -0.12946783, -0.1363898, 0.07102656, -0.021914935, -0.040528342, -0.043933813, -0.13789323, -0.12274372, -0.15547003, -0.0032351, -0.044927057, -0.008767083, -0.03527187, -0.14121798, -0.001503774, 0.11792642, -0.051609773, 0.06427238, -0.06343319, -0.009659115, 0.017339047, 0.09207984, 0.022445636, 0.06722595, 0.07187791, 0.118351206, 0.14159842, -0.008586374, -0.00631883, 0.073285416, 0.00076403836, 0.058566067, -0.07223929, -0.058074262, 0.012578064, 0.026417207, -0.014120397, -0.107117124, -0.11316931, 0.014447339, 0.0024683524, 0.10333348, 0.05841171, -0.0020126293, 0.0685766, 0.0031282504, 0.05423387, 0.038149666, 0.013523314, 0.06583024, 0.09105187, 0.052355353, 0.015947321, 0.009322774, 0.055286083, 0.072105885, 0.0031963794, -0.08625034, 0.084276326, -0.072500415, -0.24250774, -0.08272806, -0.13234356, -0.033414587, -0.14546472, -0.2645752, -0.11364059, 0.0069487235, 0.074516684, -0.030231675, -0.04068266, 0.07994812, -0.061364826, 0.011207084, -0.044278607, 0.21285826, 0.34149137, 0.16243444, -0.0075148777, 0.06641587, 0.06911635, -0.16460139, -0.07913725, -0.08514647, 0.009337524, -0.021447927, -0.08031683, -0.059781097, 0.020791415, 0.08098807, 0.2263649, 0.043940157, 0.05631397, 0.13404275, -0.124288, -0.12714614, 0.09431124, -0.03265212, 0.07822039, 0.13460301, -0.07963182, -0.18636705, -0.09138094, -0.02866644, 0.084775284, -0.17554331, -0.24988118, -0.20151402, -0.006772168, 0.05562992, -0.024145631, 0.07190313, 0.06773215, 0.036892705, -0.123358116, -0.102261074, -0.029700585, 0.058457945, 0.008241149, -0.038792636, 0.00085930957, 0.036782693, 0.07398587, 0.086172536, 0.03842515, -0.008779078, 0.11837045, 0.24337788, 0.18713918, 0.0002359165, -0.07042307, 0.12617671, 0.16373837, 0.10709419, 0.09135414, 0.082787186, 0.040777337, -0.0265687, 0.07804657, 0.030348895, 0.10537736, -0.09361478, 0.0069992607, -0.11425502, 0.035444062, 0.032584324, -0.14243402, -0.118537, -0.09105607, 0.14538714, 0.057423998, 0.056317076, -0.034888323, 0.015757207, 0.038298268, 0.0838181, -0.01346952, -0.10714744, 0.08571131, -0.028236454, -0.2983496, 0.06424256, 0.01754227, 0.09847246, -0.031947654, -0.3562157, -0.19354418, 0.10085777, 0.2472761, -9.91894e-05, 0.049674418, -0.026686827, -0.1854926, 0.036444675, 0.07665995, 0.02763093, 0.058010098, 0.16401346, 0.065493226, 0.047564365, 0.16658534, -0.08910335, 0.10853145, 0.050328374, 0.14706019, 0.12762488, -0.00486376, -0.00705582, -0.031964965, 0.09812147, 0.14711906, 0.028577913, 0.11278205, -0.063097104, 0.013780296, -0.117346354, 0.0049771066, 0.0738357, 0.12040067, 0.16365162, -0.058812078, -0.14327197, -0.032494735, -0.012445173, 0.029106935, -0.08183096, -0.024693, -0.027123805, -0.07028575, 0.17244087, 0.107090004, -0.06580028, 0.03525855, 0.20539412, 0.080810316, -0.0139616495, -0.003541999, -0.074652575, -0.02541409, -0.057340484, -0.04222846, 0.007058552, 0.08172568, 0.054371003, 0.06420392, -0.043944042, -0.098594226, 0.030548839, 0.07536951, -0.003128793, 0.05283642, 0.025629474, -0.14389476, -0.08145777, 0.100338556, -0.018762615, -0.1837889, -0.13753107, 0.06940847, 0.030852102, -0.0075967107, -0.068775155, -0.09307178, -0.026981078, -0.06147427, 0.02089992, 0.008328656, -0.0047374843, 0.08834632, -0.05499489, -0.09506719, -0.13224372, 0.032063004, 0.015404099, 0.055225886, 0.015742766, 0.012954237, -0.0039108596, 0.042153988, 0.056896072, -0.019467335, 0.06543922, 0.15294427, 0.21582338, -0.0062557454, -0.09193216, 0.065751895, 0.07646754, 0.05599345, -0.1668849, -0.16381858, 0.004837842, 0.029793363, 0.070790865, 0.101949885, 0.13626018, 0.037078205, -0.049868014, -0.00487711, -0.05624124, -0.0011313541, 0.02063777, 0.053831834, 0.054597847, 0.08792826, 0.07520128, 0.023023851, -0.0094596725, 0.13517198, 0.13562116, 0.299172, 0.047555365, -0.08009741, -0.015882855, 0.05753081, 0.034043763, 0.007044994, 0.078203976, -0.088317744, -0.070793994, -0.039466053, -0.09736152, -0.096042186, -0.014500766, 0.12269354, 0.052130617, 0.09217917, 0.13669272, 0.20083666, 0.15322767, 0.06362178, 0.058854062, 0.07662061, -0.014631339, -0.115070134, -0.088462844, -0.022888822, -0.04696531, -0.0014221765, -0.14632927, -0.16981564, 0.059852354, 0.024725238, 0.0007334266, 0.06932756, -0.0811317, -0.061924286, -0.025913078, -0.052680746, 0.05171141, 0.03637208, 0.04127629, -0.02424464, -0.040313743, 0.023032198, 0.003059403, 0.11703409, 0.10734547, 0.04604346, -0.036133956, -0.078666024, -0.010822474, 0.26036537, 0.12695998, 0.16567248, 0.008242806, -0.020740256, 0.010665984, 0.06287671, 0.3844668, 0.17483553, 0.21397224, 0.05392146, 0.0055092876, -0.14407328, -0.042714164, -0.07713412, 0.026862847, -0.0672137, 0.1268479, 0.042576607, 0.023251701, -0.030281376, -0.0117835505, 0.21979673, 0.21837226, 0.129904, -0.056947306, -0.04179956, 0.09908337, -0.017928824, 0.016859699, 0.0040182304, -0.019421563, 0.057863835, 0.008805575, -0.13133073, 0.06091807, 0.024595646, -0.015442444, 0.022677671, 0.100584954, 0.08748378, 0.103491835, 0.028697807, 0.102362424, 0.1574405, -0.0731778, -0.049176037, 0.14688456, 0.06593139, -0.04459778, 0.13640991, -0.010859092, -0.1541114, 0.041104376, -0.09702707, 0.035545405, -0.04713167, 0.09260033, -0.005465519, -0.08701948, -0.08995302, 0.022520114, -0.06514421, -0.08913564, -0.103275985, -0.08112932, 0.035334323, 0.05171777, 0.035046645, 0.0458413, 0.13648093, 0.113835156, -0.016133873, -0.09240554, -0.0044147973, 0.009772067, 0.043256387, 0.0016808317, -0.02943853, 0.055665426, -0.0050987974, 0.03499559, -0.12089551, -0.018037597, 0.087385245, -0.0357314, 0.03649795, -0.024146864, -0.05719211, 0.0046009766, 0.039787106, -0.037171017, 0.03604943, -0.04187883, -0.028708965, 0.06844671, 0.16312692, -0.032307133, 0.060789086, 0.02123596, -0.18994537, -0.2709909, -0.13344903, 0.09169422, 0.12415439, 0.052749053, -0.318382, 0.13550743, 0.2662299, -0.019514391, 0.0690519, 0.07450308, 0.05718932, 0.1602916, 0.005104381, -0.07070318, -0.010725811, 0.079108216, -0.060511164, -0.09707941, -0.06295483, 0.19084689, 0.0501795, 0.021165267, -0.15084778, -0.28578928, -0.15324672, 0.055692364, 0.013992964, -0.08553217, -0.21302864, -0.028670276, -0.03238811, 0.012312375, 0.16415311, 0.0977257, -0.14419544, 0.07124239, -0.022050282, -0.022203846, 0.08632618, 0.040960524, 0.1700005, -0.028759232, -0.046132267, 0.01418075, 0.0391427, 0.03347594, -0.0235813, -0.07339041, -0.009717974, 0.054100636, 0.060271956, 0.10946214, -0.036854554, 0.18898337, 0.06880248, 0.07668283, -0.0053500845, 0.05699628, -0.05769733, -0.01777788, 0.020199656, 0.089670755, 0.051185068, 0.13974804, -0.019153861, -0.013201452, -0.100617155, 0.03642078, 0.07495826, 0.15606022, 0.018148812, -0.031200347, 0.018110601, 0.15298219, 0.25308186, -0.1491451, -0.21361819, -0.1288144, -0.053598814, -0.036748912, -0.09413493, -0.06486519, -0.007327029, 0.10400424, 0.076437995, -0.07109898, 0.02078911, 0.00849437, 0.07264402, 0.07654052, 0.007848162, 0.044474754, -0.009024965, 0.08553643, -0.03183385, -0.015763879, -0.08305133, 0.038285997, 0.113975085, -0.1019304, 0.0058914623, 0.17057654, 0.11870418, 0.067955874, 0.00868279, 0.11724836, 0.2303215, 0.021614509, 0.043611825, -0.0896786, 0.09473236, 0.11583989, 0.024825871, -0.06005472, -0.0050459835, -0.012368259, -0.0047608297, 0.0739036, -0.22007297, -0.0786923, -0.12090991, -0.1187758, 0.053082697, -0.28392535, -0.051849674, 0.13036726, 0.054277606, -0.16171624, -0.25579113, -0.33061835, -0.052734114, -0.15457626, -0.10069636, 0.026492009, 0.14155282, 0.023958843, 0.16672789, 0.011533913, -0.038157836, 0.023142535, 0.15035914, 0.14451987, -0.0645262, 0.0018078159, 0.07180661, 0.10237525, -0.02339176, 0.02214849, -0.049418766, 0.03598585, 0.046157636, 0.029968537, 0.071148284, -0.032510024, -0.09990432, 0.05678445, 0.10964703, -0.0383797, -0.039589338, 0.040295165, -0.02615207, -0.0276061, -0.022714747, 0.08310992, 0.032057602, 0.17210695, -0.017571433, -0.10020427, -0.03398807, -0.06074211, 0.03442518, -0.008863737, 0.11339005, 0.16592526, 0.11688365, -0.020726092, -0.10378257, -0.01209467, 0.08748121, -0.003104072, -0.038514424, -0.11088592, 0.04617344, -0.045597803, -0.036253285, -0.0067925104, 0.029321203, -0.0369375, -0.18197097, -0.055023033, 0.023534914, 0.01186477, -0.03677986, 0.038299114, -0.05142737, -0.0018979566, 0.02860998, -0.021996098, 0.07288411, 0.1379378, 0.029731793, -0.08421162, -0.089475244, 0.030685652, 0.12779073, 0.056338392, 0.039613318, 0.021456357, 0.10157011, 0.07123446, 0.01235924, 0.049959697, -0.112495854, -0.099126406, -0.13524732, 0.12100867, 0.010821004, -0.02362804, -0.054996744, -0.026594596, 0.040877406, -0.064621486, -0.1477668, -0.114870034, -0.036830716, 0.04563299, 0.001418458, 0.022214947, -0.0974616, 0.03332375, -0.021555196, -0.0069241244, 0.022713633, 0.031758226, 0.13333355, -0.05837736, -0.08762002, -0.002176636, 0.029577056, 0.11019651, -0.011880088, 0.0010209315, -0.03234223, 0.064605795, 0.12250086, -0.018949933, -0.18828925, -0.14463502, 0.07829757, 0.06366851, -0.08254674, 0.0040055346, 0.012140949, -0.09695184, -0.07273129, 0.009261945, -0.053826734, -0.044744797, -0.02817244, 0.06009678, 0.00556695, 0.05767805, -0.00025060773, -0.15521462, 0.07905698, 0.094673015, -0.00041471235, 0.019588038, -0.01049358, -0.0201175, -0.11591239, -0.016729454, -0.0082436465, 0.00032346792, 0.04476594, 0.12947446, 0.069885395, -0.10061366, -0.24104549, -0.15468004, -0.01233441, 0.06675933, 0.031814653, -0.055845506, -0.16015244, 0.2957499, -0.016572263, -0.14339282, 0.029075628, -0.06899027, -0.0755481, -0.11892435, -0.107685484, 0.047485985, -0.037644118, -0.13329105, -0.028519344, 0.09265323, -0.032016233, -0.10247737, -0.014577878, -0.14467077, -0.18218479, -0.07315229, -0.0673305, -0.023684658, -0.021675527, 0.17291507, 0.008568336, 0.072870046, -0.084674336, -0.029933708, 0.08726202, 0.115930535, -0.019501863, 0.08264337, 0.14862001, 0.1001603, 0.13671762, 0.10347928, 0.19577509, -0.023753572, -0.053031772, 0.061554372, 0.0052868505, 0.08350171, 0.0046379794, 0.09069784, 0.07736632, 0.023047796, -0.039072927, 0.042708695, 0.011611916, 0.026393212, 0.061197758, 0.017994672, 0.09141823, 0.0022748257, 0.08023795, -0.067167185, 0.08675414, 0.05445034, -0.07273506, 0.16598961, 0.090307936, -0.039014462, -0.10359358, 0.05884544, -0.022093505, -0.047986582, -0.07975444, 0.113982596, -0.0027665251, -0.014627519, -0.14128657, 0.035521004, 0.07996607, -0.0075908597, -0.13421808, -0.039284214, 0.05003444, 0.0382771, 0.14964266, 0.07106387, -0.033487294, 0.084781334, -0.083528705, -0.1336993, -0.048307735, -0.006415319, -0.08084818, 0.04459098, 0.012660509, 0.064457245, 0.084570356, -0.073287874, -0.09845873, -0.07671996, -0.083823554, -0.06953014, 0.001367599, 0.03186995, -0.007976117, -0.056025933, -0.026327329, -0.1249616, 0.0047801426, 0.025189508, 0.035147984, -0.0054771435, 0.01938811, 0.031858042, 0.029697612, -0.15853912, -0.03077668, -0.0323982, -0.04699167, 0.13126701, 0.04214928, 0.080267295, 0.11793267, -0.031265624, -0.03143221, 0.05958706, 0.16408403, -0.01791731, -0.15295117, -0.01609234, 0.06285439, -0.019209595, -0.21112041, -0.1885121, -0.025228322, 0.009627562, 0.15239036, -0.06870132, -0.07392847, 0.045929994, 0.043499127, 0.0059610056, -0.0659846, -0.02186339, 0.0056337737, 0.026046138, 0.09745058, 0.03341954, -0.16397291, 0.017047683, -0.06773988, 0.06935778, 0.11931125, 0.085555464, 0.088769004, 0.10998438, -0.09695644, -0.13020489, 0.04418091, 0.090597436, 0.046599936, -0.036808312, -0.13720514, 0.00045463545, 0.037598014, 0.03895061, 0.0009890021, -0.015429574, 0.026317174, 0.03349833, 0.076408155, 0.049996972, -0.06248232, -0.08610168, -0.06628714, -0.0752825, 0.07855727, 0.041382078, 0.01483988, -0.031725734, 0.024506338, 0.07588754, -0.063860975, -0.060256027, -0.20359112, -0.06018858, 0.05739271, 0.07048785, 0.031017134, 0.12950298, -0.0012267953, 0.042006634, -0.05395069, -0.013442121, -0.014043337, 0.03554262, 0.03652476, -0.007382762, 0.042425018, 0.04168797, -0.044966154, 0.14740837, -0.032279834, 0.021807622, 0.05195847, 0.051310014, 0.24795923, 0.021425538, -0.032176062, -0.02312799, 0.06256472, 0.026077904, 0.018517792, 0.11239541, -0.0279047, -0.085358754, 0.004071635, 0.08402724, 0.012714796, -0.09355118, 0.036551476, 0.08192519, 0.046554036, -0.08947283, -0.14270668, -0.021468578, -0.04086978, 0.059751734, -0.17135827, 0.061228473, 0.058231737, 0.0056087235, 0.00093516713, 0.16416614, -0.019749766, 0.0041516344, 0.051289275, -0.1169685, -0.07474742, 0.09509575, -0.020782882, -0.036602806, -0.2243351, -0.27980146, -0.08834506, 0.079286344, 0.1327401, -0.14968085, 0.07040163, 0.06546299, 0.0056233327, 0.21022278, 0.0070566637, 0.049688395, 0.00963204, -0.051898062, 0.010751069, -0.0860248, -0.02394795, -0.12753455, -0.112177186, -0.024311777, 0.07098544, 0.13229984, -0.090150006, -0.02502041, -0.025191627, 0.07336336, 0.10275153, 0.04862969, -0.022705032, -0.008873528, -0.1081788, -0.039466422, -0.0058150203, -0.10514357, 0.00021838753, 0.10339941, 0.05762918, -0.01885564, -0.08863263, -0.18291764, -0.086812794, 0.009186513, 0.017908128, -0.11134207, 0.025555808, -0.15342574, -0.07878673, -0.05238866, -0.038703907, 0.06847172, 0.05936207, 0.08466428, -0.04507474, -0.050968416, -0.038321137, -0.040968418, 0.01857932, -0.021034466, -0.05477957, 0.11437335, 0.045124955, 0.09010626, -0.0022768823, -0.030809807, 0.077821024, -0.12128299, -0.09288488, -0.011881226, 0.09731909, 0.09409207, -0.0353354, -0.19899037, -0.14467247, -0.12724064, -0.00072029064, -0.09926271, -0.024423765, -0.019057121, 0.022448326, -0.0459524, 0.019489117, -0.045271207, 0.023015399, 0.023136495, 0.06480042, 0.008871315, -0.02201726, -0.08565788, 0.024372356, -0.014022541, 0.066811845, 0.03551233, -0.022933904, 0.14127265, 0.1799497, -0.012321215, -0.037629817, -0.058378097, -0.09732649, -0.052627575, -0.08970818, -0.036883447, 0.016474858, 0.113308206, 0.093550816, -0.03963569, -0.043301728, -0.0098328795, 0.1331542, 0.044681244, -0.0005410174, -0.017735424, -0.13139018, -0.053838685, 0.044058576, 0.019304901, 0.03330066, -0.0502671, -0.09520894, 0.10333205, 0.13422754, 0.1670952, -0.13854979, -0.009054667, 0.04919766, 0.1632263, 0.34198838, -0.018893335, -0.18513142, -0.17063668, 0.12239255, 0.13716716, -0.06398772, -0.10111801, -0.102509946, -0.0402577, 0.05253598, -0.088657945, -0.11363046, 0.06152072, 0.095228605, -0.029348122, -0.02106673, -0.041565776, -0.015434888, 0.10485666, 0.031789027, -0.082513064, 0.0678189, -0.051746618, -0.06740947, -0.08389756, -0.032690763, -0.061043248, 0.17775837, -0.10731467, -0.016486837, -0.053475004, -0.052488144, 0.11585611, -0.2020611, -0.06665375, -0.012384973, -0.01758062, -0.08408351, 0.045872897, 0.108743824, 0.018335091, 0.028871404, 0.016814716, -0.020649137, 0.1707352, 0.19545355, -0.085277796, -0.066719055, -0.066365585, -0.008264656, -0.038224213, 0.08265629, 0.10820739, 0.16240585, 0.038037468, -0.010775927, -0.078980215, 0.16089171, -0.075692505, -0.079366796, -0.052213453, -0.11881045, -0.10110856, 0.03488627, -0.03435407, -0.06167291, -0.09363652, -0.14306435, -0.079879805, 0.018552797, -0.047494654, -0.01904672, -0.11190885, 0.09312162, 0.17531489, -0.063047916, 0.005530722, -0.13611868, 0.0532322, -0.015857155, -0.07873111, -0.14034107, -0.010772936, -0.06947314, 0.030733142, -0.069562435, -0.04681747, -0.09306412, 0.07114837, -0.054376762, 0.033572916, -0.07033348, -0.0003727251, 0.040673126, 0.049849756, 0.023894757, -0.056743477, -0.06801284, 0.06850816, 0.09656779, -0.025313212, -0.054604318, 0.029499074, -0.134371, 0.03127769, -0.11467451, -0.07934846, 0.149143, -0.07147804, 0.14336325, -0.0583619, -0.010673463, -0.05063831, -0.027174566, -0.07891561, -0.13289763, -0.119489275, 0.111273505, 0.02941068, 0.07953598, 0.035070207, 0.061672386, 0.067856215, 0.08330204, 0.07348081, 0.01571426, -0.02900248, 0.056724515, -0.06417719, 0.04937526, 0.007906338, 0.023558442, -0.054133307, -0.14493544, 0.036989972, -0.13011067, -0.12772727, -0.020072576, 0.0007899716, 0.20621142, 0.08109004, -0.051744852, -0.12702137, -0.11184915, -0.07163751, 0.13400888, 0.07541225, -0.20204854, -0.22957665, -0.25830343, -0.13593595, -0.08573672, 0.05463812, -0.034992103, -0.10503467, -0.107346915, -0.062385954, 0.14137137, -0.024231948, -0.06687965, 0.11738515, 0.05350296, -0.16101813, -0.09711883, -0.06877163, 0.10167499, 0.10648768, 0.11142716, 0.11278648, 0.133866, -0.096427456, -0.1241454, 0.112182654, -0.037046324, 0.0149393, -0.17675027, -0.19573109, -0.16279492, 0.024984961, 0.010380362, 0.004713236, 0.049488015, 0.072055735, -0.08086398, -0.0948779, -0.029151855, -0.027323049, -0.20289862, 0.09646027, -0.015715217, -0.06312594, 0.036712997, 0.019274995, 0.030637322, -0.0056340643, 0.006613145, 0.053401124, 0.06252525, -0.03457952, -0.2626705, -0.0221994, 0.042755995, 0.056757633, 0.018930024, -0.07849294, -0.037424006, 0.055759337, 0.057411075, 0.07971058, 0.07414149, 0.049474496, -0.11487363, -0.102365084, -0.0064379703, 0.049625024, 0.11585504, -0.056992892, -0.2616221, -0.04360939, -0.21498473, -0.066746, -0.021011747, 0.1603764, 0.0024853868, 0.012454225, -0.10038636, 0.10133043, 0.17544988, 0.01729499, 0.040503915, 0.04675799, 0.11074771, 0.088600405, -0.033811044, -0.12901251, -0.061381284, -0.070570104, -0.0035642753, -0.18113413, -0.08891527, -0.17601192, -0.109028965, -0.09076865, -0.2339505, -0.1549253, 0.015538536, 0.0485243, -0.0621296, 0.02994518, -0.0570444, 0.048793383, 0.07664246, -0.063890055, 0.0046743234, -0.09837486, 0.13333742, 0.05909244, -0.12527138, 0.0063658375, 0.077586964, 0.18025593, 0.0065934784, -0.18204986, 0.012899361, 0.10951717, 0.14410982, 0.11323561, 0.05290792, -0.049968783, 0.04066071, 0.024253562, -0.06808364, 0.10298528, -0.04453631, -0.12757233, -0.055939376, -0.12805925, -0.11141585, -0.06090868, -0.18426621, 0.056922317, -0.021139706, 0.00427777, 0.18450087, -0.09985706, -0.22189675, 0.028951397, -0.15793012, 0.02631955, -0.29458243, -0.31047758, -0.16919725, -0.071962185, -0.09126319, -0.057553995, -0.15643293, 0.05262524, -0.09791727, 0.12176307, 0.044450633, -0.14275682, -0.028519081, -0.09725944, -0.10883195, -0.07064702, -0.0992281, 0.0064210976, -0.110014334, 0.05350827, -0.056988973, -0.08451093, -0.1114454, -0.03618027, 0.099462174, -0.02834566, 0.0024762922, -0.18629713, 0.012404671, 0.056473617, -0.1466891, -0.24880125, -0.08608577, -0.09383792, -0.045277297, -0.091650754, -0.035808165, 0.1397802, 0.13099135, 0.0053466996, 0.015311432, 0.08461794, 0.06689526, 0.13993059, -0.11612096, -0.12720466, -0.026449658, 0.03547212, -0.052786186, 0.11754923, 0.17000964, 0.04118177, -0.09426002, -0.043107174, -0.01315177, -0.098708786, 0.011066133, -0.10792194, -0.18855055, -0.072969414, -0.1836156, -0.2434769, -0.22848943, -0.06004791, -0.0012844878, 0.00938558, 0.057379894, 0.11500499, 0.13546759, 0.079051845, 0.0011665764, -0.06266532, 0.023742216, -0.073447816, 0.0068905535, -0.006385246, -0.05386678, -0.09520324, -0.018208073, -0.045019556, -0.15453288, -0.025798483, 0.054532044, 0.1679689, 0.03293663, -0.045837943, -0.0028218678, -0.02221058, 0.14617993, -0.034298945, -0.030598361, 0.032125853, 0.08476596, 0.17663315, -0.037184708, -0.07686833, 0.15681258, 0.0030169557, -0.17975338, 0.15757395, -0.15747575, -0.14101343, -0.09746218, -0.12734838, -0.05808698, -0.12336697, -0.32144198, -0.004541561, -0.03876727, -0.18913889, -0.09224433, -0.13286947, 0.14856525, -0.11698926, -0.19884387, -0.13679688, -0.022818228, 0.06956977, -0.048668355, 0.103558846, -0.02582463, -0.06710747, -0.14982466, -0.19366303, -0.13177386, -0.18625373, -0.15991278, -0.023066698, 0.06078637, -0.10594686, -0.03502033, 0.024638431, 0.13765243, 0.092762016, 0.040953126, 0.085360035, 0.07428638, 0.011019222, 0.021550639, -0.00087275123, -0.07381443, -0.03556195, 0.09111778, 0.107089825, 0.05259969, 0.12448485, 0.03052778, -0.104549326, -0.24529818, 0.0053522685, 0.0037146017, 0.13237391, 0.1541315, -0.010696406, -0.10958069, -0.21338485, -0.16250607, 0.009814133, 0.07544365, -0.04815849, -0.0027038313, -0.1701945, -0.04548361, 0.13065727, 0.021751892, -0.062128164, -0.11792379, -0.004711656, 0.022948248, -0.05712302, -0.057033062, -0.16123675, -0.27373606, -0.18097632, 0.14656885, -0.026085714, -0.06582021, -0.20603773, -0.05804151, 0.02795777, -0.17853321, 0.002890444, -0.0030787461, -0.019405397, -0.04979776, -0.057730965, -0.18259132, 0.10290662, -0.0056441734, -0.046292517, -0.029613592, -0.1357216, 0.019336568, -0.04572231, 0.18009473, -0.025129553, -0.21348862, -0.19828384, -0.028927028, 0.08636494, -0.16299118, -0.16451064, 0.0017540478, -0.11428819, 0.028297585, 0.011519025, -0.07716087, 0.13278624, -0.059708547, -0.008070276, -0.013261794, -0.04644454, 0.14337294, -0.115107216, -0.13754705, -0.19780193, 0.029409824, 0.0023988949, -0.09119586, 0.012482862, 0.108239345, -0.015886499, -0.1543096, -0.00829433, 0.104471326, -0.020949455, -0.07385058, -0.11578278, -0.18375175, 0.0009502975, -0.18176913, -0.16212583, -0.062351566, 0.13138941, 0.028161475, 0.0736439, -0.035641372, 0.094092675, 0.19059017, -0.033223618, 0.04439817, -0.014944136, 0.1403602, 0.04786388, -0.037676796, -0.018262083, -0.06449893, -0.14638115, -0.1045176, 0.023221105, 0.066798665, 0.009160019, 0.010929917, -0.066639684, 0.00077459804, -0.009555579, 0.09305443, -0.0040808334, -0.03168045, -0.030794468, 0.07975221, 0.09887639, -0.04567995, -0.115057684, -0.35505468, -0.17422158, -0.011023807, -0.010371511, 0.022464776, 0.11846846, -0.03973362, -0.009055292, 0.050503697, 0.11577454, 0.009891631, 0.102636136, -0.1314735, 0.027842848, -0.026155997, 0.056278102, 0.15691024, 0.12473828, -0.076567866, 0.058311976, -0.055043496, 0.021937024, 0.055704735, -0.20918137, -0.29074165, -0.018194541, 0.11831681, 0.078694284, -0.15567929, 0.054037854, 0.06468553, -0.0068455716, -0.025240635, -0.22835544, 0.021858787, -0.029284617, -0.028047767, -0.089832, -0.1191607, 0.10126173, 0.052865043, 0.05041214, -0.032473218, -0.018567866, -0.046912614, -0.039322775, 0.049155656, 0.092107765, -0.13884799, -0.102270074, 0.15106317, 0.21314932, 0.044143286, 0.12190623, 0.100707784, 0.039749924, 0.015292565, -0.032188285, -0.12043439, -0.025291882, -0.14380558, 0.12871565, 0.09928878, 0.08772857, 0.046603896, -0.09775384, -0.09472503, 0.072296314, 0.009894258, 0.0048509664, 0.038811415, 0.08746469, 0.040919296, -0.11323155, 0.022156825, -0.19298995, -0.13244425, -0.19403379, -0.23789391, -0.16274604, 0.034855615, -0.048414633, -0.13131802, -0.079477236, -0.12569958, -0.0069211586, 0.068960354, 0.06477745, -0.18091685, -0.2868506, -0.09523667, -0.16850719, 0.042427022, 0.29372248, -0.023539929, 0.01873319, -0.05494191, 0.17146882, 0.14113295, -0.055622123, 0.039346047, 0.1267343, 0.2249271, 0.080313124, -0.061583646, -0.02314155, 0.12640835, 0.098098904, 0.071268074, -0.031727728, 0.14436851, 0.06570897, 0.031654507, 0.19786894, 0.101956315, -0.06084173, 0.10932509, -0.016192911, 0.05955198, 0.1438275, -0.035414647, -0.08954397, -0.21907635, -0.358967, -0.22108921, -0.11243404, -0.2552706, -0.27717084, -0.18168473, 0.01635341, -0.0041130316, 0.015008751, -0.10833542, 0.022861088, -0.097269945, 0.021279598, -0.08968831, 0.014985107, -0.09599394, -0.1363036, 0.0750252, 0.026550205, 0.01497473, 0.027902056, -0.0074870475, -0.004827521, 0.026066393, 0.11418858, 0.094344616, 0.13265853, 0.2614501, 0.056725603, -0.05610249, -0.15251783, -0.03370369, 0.12797396, 0.13506402, -0.015992671, -0.12427074, -0.14430779, -0.062436428, -0.08379729, -0.08911165, 0.039095387, 0.11224988, 0.074107915, 0.019827854, 0.11590564, 0.11255665, 0.014539973, 0.1008705, 0.0320203, 0.06964692, 0.032770168, 0.011125395, -0.20891522, -0.26433533, -0.23461638, -0.2697662, -0.12624934, -0.012829859, 0.04755771, -0.020659016, -0.074803956, 0.014373135, 0.006371049, -0.013051186, -0.027120601, -0.0047011403, 0.080549516, -0.052236505, 0.048507717, 0.13024434, 0.26518902, -0.048976384, 0.14259899, 0.049133476, 0.020012269, 0.08256635, 0.045603283, -0.06296765, -0.07962598, -0.17243107, -0.15218107, -0.020349259, -0.07008744, 0.079372935, 0.06669855, 0.12084408, 0.056063566, 0.08878437, -0.021313362, 0.025521794, 0.08672476, 0.05814997, 0.03126569, 0.05187382, 0.017833933, -0.059773248, -0.11372078, -0.016871996, -0.005307184, -0.024858939, -0.31276014, -0.229797, 0.026396709, -0.20204088, -0.26041806, -0.20246418, 0.06256053, 0.07130431, 